{"learner":{"attributes":{"scikit_learn":"{\"_estimator_type\": \"classifier\"}"},"feature_names":[],"feature_types":[],"gradient_booster":{"model":{"cats":{"enc":[],"feature_segments":[],"sorted_idx":[]},"gbtree_model_param":{"num_parallel_tree":"1","num_trees":"600"},"iteration_indptr":[0,3,6,9,12,15,18,21,24,27,30,33,36,39,42,45,48,51,54,57,60,63,66,69,72,75,78,81,84,87,90,93,96,99,102,105,108,111,114,117,120,123,126,129,132,135,138,141,144,147,150,153,156,159,162,165,168,171,174,177,180,183,186,189,192,195,198,201,204,207,210,213,216,219,222,225,228,231,234,237,240,243,246,249,252,255,258,261,264,267,270,273,276,279,282,285,288,291,294,297,300,303,306,309,312,315,318,321,324,327,330,333,336,339,342,345,348,351,354,357,360,363,366,369,372,375,378,381,384,387,390,393,396,399,402,405,408,411,414,417,420,423,426,429,432,435,438,441,444,447,450,453,456,459,462,465,468,471,474,477,480,483,486,489,492,495,498,501,504,507,510,513,516,519,522,525,528,531,534,537,540,543,546,549,552,555,558,561,564,567,570,573,576,579,582,585,588,591,594,597,600],"tree_info":[0,1,2,0,1,2,0,1,2,0,1,2,0,1,2,0,1,2,0,1,2,0,1,2,0,1,2,0,1,2,0,1,2,0,1,2,0,1,2,0,1,2,0,1,2,0,1,2,0,1,2,0,1,2,0,1,2,0,1,2,0,1,2,0,1,2,0,1,2,0,1,2,0,1,2,0,1,2,0,1,2,0,1,2,0,1,2,0,1,2,0,1,2,0,1,2,0,1,2,0,1,2,0,1,2,0,1,2,0,1,2,0,1,2,0,1,2,0,1,2,0,1,2,0,1,2,0,1,2,0,1,2,0,1,2,0,1,2,0,1,2,0,1,2,0,1,2,0,1,2,0,1,2,0,1,2,0,1,2,0,1,2,0,1,2,0,1,2,0,1,2,0,1,2,0,1,2,0,1,2,0,1,2,0,1,2,0,1,2,0,1,2,0,1,2,0,1,2,0,1,2,0,1,2,0,1,2,0,1,2,0,1,2,0,1,2,0,1,2,0,1,2,0,1,2,0,1,2,0,1,2,0,1,2,0,1,2,0,1,2,0,1,2,0,1,2,0,1,2,0,1,2,0,1,2,0,1,2,0,1,2,0,1,2,0,1,2,0,1,2,0,1,2,0,1,2,0,1,2,0,1,2,0,1,2,0,1,2,0,1,2,0,1,2,0,1,2,0,1,2,0,1,2,0,1,2,0,1,2,0,1,2,0,1,2,0,1,2,0,1,2,0,1,2,0,1,2,0,1,2,0,1,2,0,1,2,0,1,2,0,1,2,0,1,2,0,1,2,0,1,2,0,1,2,0,1,2,0,1,2,0,1,2,0,1,2,0,1,2,0,1,2,0,1,2,0,1,2,0,1,2,0,1,2,0,1,2,0,1,2,0,1,2,0,1,2,0,1,2,0,1,2,0,1,2,0,1,2,0,1,2,0,1,2,0,1,2,0,1,2,0,1,2,0,1,2,0,1,2,0,1,2,0,1,2,0,1,2,0,1,2,0,1,2,0,1,2,0,1,2,0,1,2,0,1,2,0,1,2,0,1,2,0,1,2,0,1,2,0,1,2,0,1,2,0,1,2,0,1,2,0,1,2,0,1,2,0,1,2,0,1,2,0,1,2,0,1,2,0,1,2,0,1,2,0,1,2,0,1,2,0,1,2,0,1,2,0,1,2,0,1,2,0,1,2,0,1,2,0,1,2,0,1,2,0,1,2,0,1,2,0,1,2,0,1,2,0,1,2,0,1,2,0,1,2,0,1,2,0,1,2,0,1,2,0,1,2,0,1,2,0,1,2,0,1,2,0,1,2,0,1,2,0,1,2,0,1,2,0,1,2,0,1,2,0,1,2,0,1,2],"trees":[{"base_weights":[-1.783984E-2,-2.3045251E-1,6.922653E-2,-3.672006E-1,8.6268885E-3,-1.8057518E-1,1.8280716E-1,-4.7298202E-1,7.29282E-2,-4.9508914E-1,2.1044077E-1,3.8110146E-1,-2.2810745E-1,5.606488E-1,8.3718784E-2,-6.327295E-1,-2.6227015E-1,4.4664535E-1,-4.9680236E-1,8.56335E-2,-5.8673656E-1,-1.5204932E-1,5.933724E-1,5.8529955E-1,-5.4587133E-2,-4.095279E-1,-1.2571248E-1,6.872271E-1,-3.7230465E-1,-3.7326798E-2,3.8884622E-1,-6.5482247E-1,2.3933193E-2,-1.2001725E-1,-7.025763E-2,4.872633E-2,9.42503E-1,5.9919387E-2,-6.927554E-2,-6.778928E-1,-1.1389834E-1,6.52289E-1,-4.5343736E-1,-6.465956E-2,8.6505306E-1,1.0671428E0,-7.8252493E-4,-1.0425725E-1,-5.990328E-1,-2.8253055E-1,2.5984097E-1,8.4056413E-1,-1.9272831E-1,-5.881258E-1,5.9919387E-2,8.29714E-2,-2.4604924E-1,-2.3881637E-1,5.332981E-1,-5.076131E-1,-7.0332766E-2,-6.836151E-2,4.0649556E-2,7.3473585E-1,-4.2913935E-1,1.3135886E-1,-4.8039194E-2,-1.2052999E-2,-7.168674E-2,8.56335E-2,-5.8579445E-2,-2.455128E-1,1.2772682E-1,9.590558E-2,-5.788466E-1,-7.9990516E-4,1.1692007E0,1.2617627E-1,2.3933193E-2,-3.1638795E-1,8.56335E-2,-2.8890818E-1,9.5007226E-2,-6.383007E-1,1.0278483E-2,9.41048E-2,-4.108196E-1,6.057846E-1,-6.808589E-2,3.6223906E-1,1.1697192E0,8.908064E-2,-5.881258E-1,-6.7103356E-2,-5.143226E-5,-4.8788974E-1,1.6362895E-1,7.8831744E-1,-3.122576E-1,-4.7828546E-1,7.306627E-1,6.644118E-1,-2.4862932E-1,-6.2736645E-2,8.56335E-2,2.377439E-2,-6.671115E-2,-4.2893898E-2,1.1694818E-1,-6.465956E-2,4.2791035E-2,-5.679912E-2,4.2791035E-2,-2.9097825E-2,-7.0953995E-2,-6.320181E-2,1.08977914E-1,1.422065E-1,-3.248583E-2,-5.8579445E-2,2.3933193E-2,7.988965E-2,-5.290534E-2,-7.0200466E-2,-2.314254E-2,9.044627E-2,-1.5330972E-2,-4.6411008E-2,3.0523807E-2,9.509804E-2,-3.123181E-2,7.909012E-3,1.1903658E-1,1.8374478E-2,1.3267946E-1,-6.7103356E-2,-5.143226E-5,-6.594383E-2,5.445623E-2,9.1366837E-4,4.3950107E-2,-1.2052999E-2,1.1694818E-1,-6.765302E-2,-1.8913753E-2,-6.418629E-2,8.56335E-2,-5.143226E-5,1.0334345E-1,-2.1719355E-2,7.976372E-2,8.56335E-2,-4.4095047E-2],"categories":[],"categories_nodes":[],"categories_segments":[],"categories_sizes":[],"default_left":[0,0,0,0,0,0,0,0,0,0,0,0,0,0,0,0,0,0,0,0,0,0,0,0,0,0,0,0,0,0,0,0,0,0,0,0,0,0,0,0,0,0,0,0,0,0,0,0,0,0,0,0,0,0,0,0,0,0,0,0,0,0,0,0,0,0,0,0,0,0,0,0,0,0,0,0,0,0,0,0,0,0,0,0,0,0,0,0,0,0,0,0,0,0,0,0,0,0,0,0,0,0,0,0,0,0,0,0,0,0,0,0,0,0,0,0,0,0,0,0,0,0,0,0,0,0,0,0,0,0,0,0,0,0,0,0,0,0,0,0,0,0,0,0,0,0,0,0,0,0,0,0,0],"id":0,"left_children":[1,3,5,7,9,11,13,15,17,19,21,23,25,27,29,31,33,35,37,-1,39,41,43,45,-1,47,49,51,53,55,57,59,-1,61,-1,63,65,-1,-1,67,69,71,73,-1,75,77,79,81,83,85,87,89,91,93,-1,95,97,99,101,103,-1,-1,105,107,109,-1,-1,-1,-1,-1,-1,111,-1,-1,113,115,117,-1,-1,119,-1,121,-1,123,-1,125,127,129,-1,131,133,-1,135,-1,-1,137,139,141,143,145,147,149,151,-1,-1,-1,-1,-1,-1,-1,-1,-1,-1,-1,-1,-1,-1,-1,-1,-1,-1,-1,-1,-1,-1,-1,-1,-1,-1,-1,-1,-1,-1,-1,-1,-1,-1,-1,-1,-1,-1,-1,-1,-1,-1,-1,-1,-1,-1,-1,-1,-1,-1],"loss_changes":[1.8227688E1,9.355502E0,1.9858427E1,8.507828E0,1.0784499E1,5.931295E0,1.795569E1,4.7776337E0,7.9150844E0,4.2615433E0,1.0599644E1,3.623355E0,3.7094126E0,1.2032642E1,1.4127759E1,1.7524986E0,3.989345E0,4.3632145E0,3.5906007E0,0E0,1.1734734E0,9.917304E0,1.3030996E1,4.176409E0,0E0,4.1373863E0,7.9851694E0,1.2057854E1,2.9863763E0,6.9127474E0,9.975613E0,2.2169876E-1,0E0,4.588225E0,0E0,4.7251134E0,5.855343E0,0E0,0E0,4.3766403E-1,3.1992023E0,6.613897E0,5.7739463E0,0E0,8.110876E0,1.0054741E0,2.3459325E0,5.923557E0,1.2942295E0,4.5564046E0,1.2894521E1,1.1426521E1,6.47759E0,5.2500653E-1,0E0,8.132143E0,7.1366653E0,5.2276144E0,9.249416E0,4.4051065E0,0E0,0E0,5.7572E0,3.4823244E0,1.8720345E0,0E0,0E0,0E0,0E0,0E0,0E0,1.4259677E0,0E0,0E0,8.350296E-1,6.887602E0,9.072216E0,0E0,0E0,1.0888703E0,0E0,7.0733685E0,0E0,9.35442E-1,0E0,5.0647435E0,2.810132E0,9.35222E0,0E0,7.4397435E0,6.5918007E0,0E0,5.2500653E-1,0E0,0E0,4.2381883E0,6.558652E0,2.3360593E0,4.1452217E0,4.3601646E0,1.0095115E0,9.117947E0,3.236239E0,0E0,0E0,0E0,0E0,0E0,0E0,0E0,0E0,0E0,0E0,0E0,0E0,0E0,0E0,0E0,0E0,0E0,0E0,0E0,0E0,0E0,0E0,0E0,0E0,0E0,0E0,0E0,0E0,0E0,0E0,0E0,0E0,0E0,0E0,0E0,0E0,0E0,0E0,0E0,0E0,0E0,0E0,0E0,0E0,0E0,0E0,0E0,0E0,0E0,0E0],"parents":[2147483647,0,0,1,1,2,2,3,3,4,4,5,5,6,6,7,7,8,8,9,9,10,10,11,11,12,12,13,13,14,14,15,15,16,16,17,17,18,18,20,20,21,21,22,22,23,23,25,25,26,26,27,27,28,28,29,29,30,30,31,31,33,33,35,35,36,36,39,39,40,40,41,41,42,42,44,44,45,45,46,46,47,47,48,48,49,49,50,50,51,51,52,52,53,53,55,55,56,56,57,57,58,58,59,59,62,62,63,63,64,64,71,71,74,74,75,75,76,76,79,79,81,81,83,83,85,85,86,86,87,87,89,89,90,90,92,92,95,95,96,96,97,97,98,98,99,99,100,100,101,101,102,102],"right_children":[2,4,6,8,10,12,14,16,18,20,22,24,26,28,30,32,34,36,38,-1,40,42,44,46,-1,48,50,52,54,56,58,60,-1,62,-1,64,66,-1,-1,68,70,72,74,-1,76,78,80,82,84,86,88,90,92,94,-1,96,98,100,102,104,-1,-1,106,108,110,-1,-1,-1,-1,-1,-1,112,-1,-1,114,116,118,-1,-1,120,-1,122,-1,124,-1,126,128,130,-1,132,134,-1,136,-1,-1,138,140,142,144,146,148,150,152,-1,-1,-1,-1,-1,-1,-1,-1,-1,-1,-1,-1,-1,-1,-1,-1,-1,-1,-1,-1,-1,-1,-1,-1,-1,-1,-1,-1,-1,-1,-1,-1,-1,-1,-1,-1,-1,-1,-1,-1,-1,-1,-1,-1,-1,-1,-1,-1,-1,-1],"split_conditions":[1.9487415E-1,1E0,1E0,1E0,1E0,2.6732674E-1,1.2328767E-1,5.897436E-1,1E0,3.7955955E-1,1E0,5.8179593E-1,4.370335E-1,7.5E-1,1E0,8.4634864E-1,1E0,5.569087E-1,6.042307E-2,8.56335E-2,8.310502E-1,3.8630137E-1,2.2743581E-1,1.8491754E-1,-5.4587133E-2,4.871795E-1,7.1794873E-1,1E0,1E0,6.280231E-1,2.2222222E-1,4.082192E-1,2.3933193E-2,1.4677507E-1,-7.025763E-2,1E0,5.641026E-1,5.9919387E-2,-6.927554E-2,7.8271925E-2,5.413959E-1,3.4160677E-1,3.2111567E-2,-6.465956E-2,1.3414814E-1,2.3847121E-1,2.5742576E-1,1E0,9.7779214E-1,6.1198264E-1,7.8340536E-1,4.2237442E-2,3.3848158E-1,7.980067E-1,5.9919387E-2,9.090909E-2,8.833927E-2,1E0,8.4200525E-1,5.1601756E-1,-7.0332766E-2,-6.836151E-2,6.583293E-1,3.8252673E-1,3.828201E-1,1.3135886E-1,-4.8039194E-2,-1.2052999E-2,-7.168674E-2,8.56335E-2,-5.8579445E-2,5.747136E-1,1.2772682E-1,9.590558E-2,1E0,1E0,1E0,1.2617627E-1,2.3933193E-2,8.2051283E-1,8.56335E-2,2.3566489E-1,9.5007226E-2,5.2999824E-1,1.0278483E-2,3.6754027E-1,7.329283E-1,5.454309E-1,-6.808589E-2,1E0,2.1407364E-1,8.908064E-2,6.787249E-1,-6.7103356E-2,-5.143226E-5,1E0,1E0,5.569087E-1,2.3076923E-1,7.6534003E-1,2.3076923E-1,1.5924658E-1,1.7008623E-1,-6.2736645E-2,8.56335E-2,2.377439E-2,-6.671115E-2,-4.2893898E-2,1.1694818E-1,-6.465956E-2,4.2791035E-2,-5.679912E-2,4.2791035E-2,-2.9097825E-2,-7.0953995E-2,-6.320181E-2,1.08977914E-1,1.422065E-1,-3.248583E-2,-5.8579445E-2,2.3933193E-2,7.988965E-2,-5.290534E-2,-7.0200466E-2,-2.314254E-2,9.044627E-2,-1.5330972E-2,-4.6411008E-2,3.0523807E-2,9.509804E-2,-3.123181E-2,7.909012E-3,1.1903658E-1,1.8374478E-2,1.3267946E-1,-6.7103356E-2,-5.143226E-5,-6.594383E-2,5.445623E-2,9.1366837E-4,4.3950107E-2,-1.2052999E-2,1.1694818E-1,-6.765302E-2,-1.8913753E-2,-6.418629E-2,8.56335E-2,-5.143226E-5,1.0334345E-1,-2.1719355E-2,7.976372E-2,8.56335E-2,-4.4095047E-2],"split_indices":[10,22,12,19,13,8,9,0,25,9,27,11,3,3,31,11,29,4,4,0,9,9,4,3,0,2,2,18,20,3,7,9,0,4,0,13,0,0,0,11,3,3,3,0,1,8,8,15,4,3,0,9,11,1,0,3,1,18,2,8,0,0,4,0,4,0,0,0,0,0,0,0,0,0,12,31,31,0,0,0,0,10,0,11,0,8,10,11,0,14,1,0,4,0,0,19,29,4,2,0,0,9,9,0,0,0,0,0,0,0,0,0,0,0,0,0,0,0,0,0,0,0,0,0,0,0,0,0,0,0,0,0,0,0,0,0,0,0,0,0,0,0,0,0,0,0,0,0,0,0,0,0,0],"split_type":[0,0,0,0,0,0,0,0,0,0,0,0,0,0,0,0,0,0,0,0,0,0,0,0,0,0,0,0,0,0,0,0,0,0,0,0,0,0,0,0,0,0,0,0,0,0,0,0,0,0,0,0,0,0,0,0,0,0,0,0,0,0,0,0,0,0,0,0,0,0,0,0,0,0,0,0,0,0,0,0,0,0,0,0,0,0,0,0,0,0,0,0,0,0,0,0,0,0,0,0,0,0,0,0,0,0,0,0,0,0,0,0,0,0,0,0,0,0,0,0,0,0,0,0,0,0,0,0,0,0,0,0,0,0,0,0,0,0,0,0,0,0,0,0,0,0,0,0,0,0,0,0,0],"sum_hessian":[9.828111E2,2.850597E2,6.977514E2,1.8099734E2,1.04062355E2,2.1790834E2,4.7984308E2,1.4586517E2,3.513216E1,2.935092E1,7.471143E1,1.6454304E1,2.0145404E2,9.872582E1,3.8111725E2,8.1826805E1,6.403837E1,2.1346123E1,1.3786038E1,1.3341327E0,2.8016787E1,3.868985E1,3.6021584E1,1.3786038E1,2.6682653E0,7.159846E1,1.2985559E2,8.716334E1,1.1562484E1,2.7349722E2,1.0762004E2,8.0047966E1,1.7788436E0,4.936291E1,1.467546E1,1.2451905E1,8.894218E0,1.7788436E0,1.20071945E1,2.3124968E1,4.89182E0,1.0228351E1,2.8461498E1,6.2259526E0,2.9795631E1,7.1153746E0,6.670664E0,2.8016787E1,4.358167E1,9.249987E1,3.7355717E1,7.426672E1,1.2896616E1,9.78364E0,1.7788436E0,1.7388197E2,9.961524E1,2.0011992E1,8.760805E1,2.2680256E1,5.7367706E1,1.0228351E1,3.913456E1,4.89182E0,7.5600853E0,7.1153746E0,1.7788436E0,1.7788436E0,2.1346123E1,1.3341327E0,3.5576873E0,4.447109E0,5.781242E0,1.7788436E0,2.6682655E1,8.004796E0,2.1790834E1,5.3365307E0,1.7788436E0,5.3365307E0,1.3341327E0,2.44591E1,3.5576873E0,4.1358116E1,2.2235546E0,2.3569677E1,6.893019E1,2.7572077E1,9.78364E0,3.1129765E1,4.313696E1,3.1129763E0,9.78364E0,8.449508E0,1.3341327E0,2.0901413E1,1.5298056E2,5.3365307E0,9.427871E1,1.6454304E1,3.5576873E0,7.515614E1,1.2451905E1,2.1346123E1,1.3341327E0,3.1129765E1,8.004796E0,1.3341327E0,3.5576873E0,6.2259526E0,1.3341327E0,3.1129763E0,1.3341327E0,9.338929E0,1.7343725E1,5.3365307E0,2.6682653E0,1.8677858E1,3.1129763E0,3.5576873E0,1.7788436E0,4.002398E0,2.0456701E1,3.513216E1,6.2259526E0,4.89182E0,1.8677858E1,6.4483086E1,4.447109E0,2.0011992E1,7.5600853E0,2.4014389E1,7.1153746E0,6.2259526E0,3.6911007E1,8.449508E0,1.3341327E0,1.8233147E1,2.6682653E0,9.872582E1,5.425473E1,1.7788436E0,3.5576873E0,2.2680256E1,7.159846E1,1.5120171E1,1.3341327E0,1.3341327E0,2.2235546E0,9.78364E0,6.5372505E1,1.3341327E0,1.1117773E1],"tree_param":{"num_deleted":"0","num_feature":"34","num_nodes":"153","size_leaf_vector":"1"}},{"base_weights":[2.2277958E-3,2.1733528E-1,-9.68123E-2,2.89406E-1,-2.9318187E-1,-3.1644568E-1,-3.9817668E-3,3.450914E-1,-1.5048623E-1,-3.9776027E-1,8.16867E-2,3.6610935E-2,-4.1390195E-1,-6.550578E-2,2.949126E-1,1.014257E-1,4.8087612E-1,-3.894281E-1,3.3890408E-1,2.545259E-2,-5.9796137E-1,4.4912583E-1,-6.476859E-1,-2.889687E-1,-5.2302134E-1,-9.5477775E-2,6.226047E-1,7.70079E-1,5.9166998E-2,-6.0066456E-1,2.8298828E-1,1.4312294E-1,7.010357E-1,2.2529706E-1,-5.8456486E-1,1.19831584E-1,-3.4503135E-1,8.16867E-2,-2.7052605E-1,-7.156106E-2,1.6118085E-1,8.1184715E-1,-3.5374174E-1,-6.689005E-5,-7.027113E-2,-3.446887E-1,4.8852906E-1,-6.120585E-1,-1.0802356E-3,3.6280516E-1,-1.4151621E-1,9.8051965E-1,-4.00687E-1,1.0279666E0,-4.292543E-1,2.4801812E-1,-5.461445E-1,-6.476859E-1,-6.689005E-5,6.3667613E-1,-9.69107E-2,-8.055648E-2,9.982008E-1,3.8544863E-1,1.080263E0,-5.1777072E-2,8.16867E-2,-8.5122447E-4,-6.9658294E-2,-6.005624E-2,2.391312E-2,5.442943E-1,-6.467285E-2,-4.805098E-2,8.5609235E-2,1.1259094E0,-1.1410594E-1,-6.581112E-2,8.5609235E-2,-1.04500346E-1,-4.9946478E-1,1.0894398E-1,-4.805098E-2,-2.3168354E-1,-6.863395E-1,8.556424E-1,-5.4611284E-1,1.0681748E0,-3.281381E-1,9.839702E-2,-2.2602372E-1,1.2660835E0,-4.805098E-2,-5.4599673E-2,-6.689005E-5,1.2118672E0,-8.191899E-2,-6.689005E-5,-5.681187E-2,-4.4757825E-1,6.268578E-1,4.277117E-2,-6.886553E-2,-6.689005E-5,-7.027113E-2,8.35975E-2,-1.6529731E-2,-3.3889677E-2,3.839721E-2,7.1740665E-2,-3.6156964E-2,1.9893907E-2,1.3313699E-1,9.095837E-2,-1.3572005E-2,1.2141572E-2,1.1908352E-1,4.277117E-2,-4.2904954E-2,8.5609235E-2,-6.689005E-5,1.3784643E-1,-2.075926E-2,8.5609235E-2,-5.8592346E-2,-2.8911818E-2,9.497277E-2,-5.9339434E-2,4.51146E-3,8.16867E-2,-5.8129366E-2,-7.352796E-2,-3.8788147E-2,2.391312E-2,1.0894398E-1,-6.689005E-5,-6.467285E-2,1.2680553E-1,-2.075926E-2,5.986898E-2,-6.285407E-2,5.0019342E-2,-1.2581848E-2,-3.4826238E-2,-2.5084994E-3,4.277117E-2,1.339196E-1,1.2973058E-1,2.391312E-2,-4.805098E-2,4.277117E-2,-6.2463492E-2,5.989517E-2,-1.0802356E-4,1.094653E-1],"categories":[],"categories_nodes":[],"categories_segments":[],"categories_sizes":[],"default_left":[0,0,0,0,0,0,0,0,0,0,0,0,0,0,0,0,0,0,0,0,0,0,0,0,0,0,0,0,0,0,0,0,0,0,0,0,0,0,0,0,0,0,0,0,0,0,0,0,0,0,0,0,0,0,0,0,0,0,0,0,0,0,0,0,0,0,0,0,0,0,0,0,0,0,0,0,0,0,0,0,0,0,0,0,0,0,0,0,0,0,0,0,0,0,0,0,0,0,0,0,0,0,0,0,0,0,0,0,0,0,0,0,0,0,0,0,0,0,0,0,0,0,0,0,0,0,0,0,0,0,0,0,0,0,0,0,0,0,0,0,0,0,0,0,0,0,0,0,0,0,0,0,0,0,0],"id":1,"left_children":[1,3,5,7,9,11,13,15,17,19,-1,21,23,25,27,29,31,33,35,37,39,41,43,45,47,49,51,53,55,57,59,61,63,65,67,-1,69,-1,71,-1,73,75,77,-1,-1,79,81,83,85,87,89,91,93,95,97,99,101,103,-1,105,107,109,111,113,115,-1,-1,117,-1,-1,-1,119,-1,-1,-1,121,123,-1,-1,125,127,-1,-1,129,131,133,135,137,139,141,143,145,-1,-1,-1,147,149,-1,-1,151,153,-1,-1,-1,-1,-1,-1,-1,-1,-1,-1,-1,-1,-1,-1,-1,-1,-1,-1,-1,-1,-1,-1,-1,-1,-1,-1,-1,-1,-1,-1,-1,-1,-1,-1,-1,-1,-1,-1,-1,-1,-1,-1,-1,-1,-1,-1,-1,-1,-1,-1,-1,-1,-1,-1],"loss_changes":[2.0927324E1,1.1479188E1,1.3712866E1,6.711735E0,4.8299375E0,6.8905296E0,8.732347E0,7.945877E0,3.7857304E0,3.077149E0,0E0,1.2752177E1,1.9847813E0,8.180169E0,9.034913E0,1.1353754E1,1.1417789E1,2.7059903E0,6.752921E0,3.164129E0,2.3100996E0,8.479776E0,6.052141E-1,3.429686E0,3.828493E0,8.0304785E0,6.460818E0,8.729661E0,6.4529448E0,5.171776E-1,9.519345E0,1.2011636E1,1.0775597E1,3.0132425E0,1.0827093E0,0E0,1.1560154E0,0E0,3.3854485E0,0E0,2.2456615E0,5.851907E0,4.043618E0,0E0,0E0,2.5810223E0,3.6958356E0,1.8297558E0,6.5418873E0,1.7313E1,7.004333E0,5.8505144E0,2.9044867E-1,4.661091E0,3.2385385E-1,1.1561928E1,2.1617799E0,6.052141E-1,0E0,5.985379E0,4.1801744E0,1.15546665E1,3.1993885E0,1.4490648E1,4.299923E0,0E0,0E0,8.567607E-1,0E0,0E0,0E0,6.2396026E-1,0E0,0E0,0E0,5.2666683E0,3.1990263E0,0E0,0E0,5.9230814E0,2.216609E0,0E0,0E0,5.243859E0,5.6750107E-1,5.247357E-1,4.6942115E-1,4.714857E0,5.484455E0,8.207244E0,6.254095E0,8.830643E-2,0E0,0E0,0E0,1.2884998E0,1.0411191E0,0E0,0E0,3.2792015E0,8.264926E0,0E0,0E0,0E0,0E0,0E0,0E0,0E0,0E0,0E0,0E0,0E0,0E0,0E0,0E0,0E0,0E0,0E0,0E0,0E0,0E0,0E0,0E0,0E0,0E0,0E0,0E0,0E0,0E0,0E0,0E0,0E0,0E0,0E0,0E0,0E0,0E0,0E0,0E0,0E0,0E0,0E0,0E0,0E0,0E0,0E0,0E0,0E0,0E0,0E0,0E0,0E0,0E0,0E0,0E0],"parents":[2147483647,0,0,1,1,2,2,3,3,4,4,5,5,6,6,7,7,8,8,9,9,11,11,12,12,13,13,14,14,15,15,16,16,17,17,18,18,19,19,20,20,21,21,22,22,23,23,24,24,25,25,26,26,27,27,28,28,29,29,30,30,31,31,32,32,33,33,34,34,36,36,38,38,40,40,41,41,42,42,45,45,46,46,47,47,48,48,49,49,50,50,51,51,52,52,53,53,54,54,55,55,56,56,57,57,59,59,60,60,61,61,62,62,63,63,64,64,67,67,71,71,75,75,76,76,79,79,80,80,83,83,84,84,85,85,86,86,87,87,88,88,89,89,90,90,91,91,95,95,96,96,99,99,100,100],"right_children":[2,4,6,8,10,12,14,16,18,20,-1,22,24,26,28,30,32,34,36,38,40,42,44,46,48,50,52,54,56,58,60,62,64,66,68,-1,70,-1,72,-1,74,76,78,-1,-1,80,82,84,86,88,90,92,94,96,98,100,102,104,-1,106,108,110,112,114,116,-1,-1,118,-1,-1,-1,120,-1,-1,-1,122,124,-1,-1,126,128,-1,-1,130,132,134,136,138,140,142,144,146,-1,-1,-1,148,150,-1,-1,152,154,-1,-1,-1,-1,-1,-1,-1,-1,-1,-1,-1,-1,-1,-1,-1,-1,-1,-1,-1,-1,-1,-1,-1,-1,-1,-1,-1,-1,-1,-1,-1,-1,-1,-1,-1,-1,-1,-1,-1,-1,-1,-1,-1,-1,-1,-1,-1,-1,-1,-1,-1,-1,-1,-1],"split_conditions":[1E0,1E0,1.7465754E-1,1E0,1E0,1.8957627E-1,4.4444445E-1,4.090909E-1,6.660862E-1,3.9588767E-1,8.16867E-2,1E0,5.659957E-1,9.7727275E-1,1E0,1.7168786E-1,3.8608137E-1,1.4936438E-1,4.9612895E-1,1.7008623E-1,6.930693E-1,1E0,3.4246575E-2,8.3382326E-1,1E0,4.050475E-2,1E0,8.540735E-1,6.4570963E-1,2.1407364E-1,5.569087E-1,8.3382326E-1,1E0,2.0334056E-1,1E0,1.19831584E-1,6.708376E-1,8.16867E-2,1.4936438E-1,-7.156106E-2,4.1859558E-1,4.7557485E-1,4.090909E-1,-6.689005E-5,-7.027113E-2,1.4410107E-1,4.3747845E-1,3.6242288E-1,4.779704E-1,1E0,2.5652087E-1,9.1320986E-1,6.2893397E-1,1E0,5.140276E-1,5.841584E-1,3.6242288E-1,6.042307E-2,-6.689005E-5,3.4160677E-1,5.347454E-1,8.3246715E-2,1E0,2.2887804E-1,9.811789E-2,-5.1777072E-2,8.16867E-2,8.118812E-1,-6.9658294E-2,-6.005624E-2,2.391312E-2,4.7220185E-1,-6.467285E-2,-4.805098E-2,8.5609235E-2,1E0,2.3847121E-1,-6.581112E-2,8.5609235E-2,1.3636364E-1,1E0,1.0894398E-1,-4.805098E-2,3.4263086E-1,6.8526655E-1,3.6938033E-1,4.1838443E-1,1E0,1E0,1E0,5.100822E-1,2.1407364E-1,-4.805098E-2,-5.4599673E-2,-6.689005E-5,4.630137E-1,3.8252673E-1,-6.689005E-5,-5.681187E-2,1E0,3.9588767E-1,4.277117E-2,-6.886553E-2,-6.689005E-5,-7.027113E-2,8.35975E-2,-1.6529731E-2,-3.3889677E-2,3.839721E-2,7.1740665E-2,-3.6156964E-2,1.9893907E-2,1.3313699E-1,9.095837E-2,-1.3572005E-2,1.2141572E-2,1.1908352E-1,4.277117E-2,-4.2904954E-2,8.5609235E-2,-6.689005E-5,1.3784643E-1,-2.075926E-2,8.5609235E-2,-5.8592346E-2,-2.8911818E-2,9.497277E-2,-5.9339434E-2,4.51146E-3,8.16867E-2,-5.8129366E-2,-7.352796E-2,-3.8788147E-2,2.391312E-2,1.0894398E-1,-6.689005E-5,-6.467285E-2,1.2680553E-1,-2.075926E-2,5.986898E-2,-6.285407E-2,5.0019342E-2,-1.2581848E-2,-3.4826238E-2,-2.5084994E-3,4.277117E-2,1.339196E-1,1.2973058E-1,2.391312E-2,-4.805098E-2,4.277117E-2,-6.2463492E-2,5.989517E-2,-1.0802356E-4,1.094653E-1],"split_indices":[12,33,9,14,28,2,10,3,1,1,0,23,10,3,13,11,0,10,2,9,8,32,9,4,33,10,26,3,11,1,4,4,22,4,13,0,0,0,10,0,4,11,3,0,0,3,0,2,1,27,11,1,0,33,0,8,2,4,0,3,10,0,25,5,5,0,0,8,0,0,0,0,0,0,0,20,8,0,0,3,32,0,0,0,1,2,2,26,13,25,11,1,0,0,0,9,0,0,0,16,1,0,0,0,0,0,0,0,0,0,0,0,0,0,0,0,0,0,0,0,0,0,0,0,0,0,0,0,0,0,0,0,0,0,0,0,0,0,0,0,0,0,0,0,0,0,0,0,0,0,0,0,0,0,0],"split_type":[0,0,0,0,0,0,0,0,0,0,0,0,0,0,0,0,0,0,0,0,0,0,0,0,0,0,0,0,0,0,0,0,0,0,0,0,0,0,0,0,0,0,0,0,0,0,0,0,0,0,0,0,0,0,0,0,0,0,0,0,0,0,0,0,0,0,0,0,0,0,0,0,0,0,0,0,0,0,0,0,0,0,0,0,0,0,0,0,0,0,0,0,0,0,0,0,0,0,0,0,0,0,0,0,0,0,0,0,0,0,0,0,0,0,0,0,0,0,0,0,0,0,0,0,0,0,0,0,0,0,0,0,0,0,0,0,0,0,0,0,0,0,0,0,0,0,0,0,0,0,0,0,0,0,0],"sum_hessian":[9.803191E2,3.0868488E2,6.716342E2,2.7087766E2,3.7807224E1,1.9882152E2,4.7281268E2,2.4063187E2,3.0245779E1,3.5138477E1,2.6687453E0,4.3144714E1,1.556768E2,3.9275034E2,8.0062355E1,8.673422E1,1.5389764E2,2.046038E1,9.785399E0,1.1564563E1,2.3573915E1,2.7132242E1,1.6012472E1,7.4280075E1,8.139673E1,3.7718265E2,1.556768E1,2.579787E1,5.4264484E1,1.7346844E1,6.9387375E1,6.138114E1,9.25165E1,4.8926997E0,1.556768E1,4.003118E0,5.7822814E0,2.6687453E0,8.895818E0,2.046038E1,3.1135361E0,1.8681217E1,8.451027E0,1.3343726E0,1.4678099E1,6.983217E1,4.447909E0,6.9387375E1,1.2009354E1,3.3804108E1,3.4337854E2,1.1564563E1,4.003118E0,2.1349962E1,4.447909E0,4.181034E1,1.24541445E1,1.6012472E1,1.3343726E0,3.558327E1,3.3804108E1,4.9371788E1,1.2009354E1,5.159574E1,4.092076E1,2.2239544E0,2.6687453E0,2.6687453E0,1.2898935E1,4.003118E0,1.7791635E0,2.6687453E0,6.2270722E0,1.7791635E0,1.3343726E0,1.3788517E1,4.8926997E0,7.116654E0,1.3343726E0,2.8021824E1,4.181034E1,2.6687453E0,1.7791635E0,1.2009354E1,5.737802E1,4.447909E0,7.5614448E0,1.6457262E1,1.7346844E1,8.940296E1,2.5397559E2,9.785399E0,1.7791635E0,2.6687453E0,1.3343726E0,1.8236425E1,3.1135361E0,1.3343726E0,3.1135361E0,1.4678099E1,2.7132242E1,1.3343726E0,1.1119772E1,1.3343726E0,1.4678099E1,2.8466616E1,7.116654E0,2.2684334E1,1.1119772E1,1.24541445E1,3.691764E1,4.003118E0,8.006236E0,2.5353079E1,2.624266E1,4.447909E0,3.647285E1,1.3343726E0,1.3343726E0,1.3343726E0,1.3343726E0,1.1564563E1,2.2239544E0,1.3343726E0,3.558327E0,2.4463497E1,3.558327E0,3.558327E1,6.2270722E0,2.6687453E0,9.340609E0,4.8037415E1,9.340609E0,1.7791635E0,2.6687453E0,1.3343726E0,6.2270722E0,1.4233308E1,2.2239544E0,4.003118E0,1.3343726E1,3.1580153E1,5.7822815E1,1.5745596E2,9.6519615E1,1.3343726E0,8.451027E0,1.6457262E1,1.7791635E0,1.7791635E0,1.3343726E0,1.2898935E1,1.7791635E0,1.2009354E1,1.51228895E1],"tree_param":{"num_deleted":"0","num_feature":"34","num_nodes":"155","size_leaf_vector":"1"}},{"base_weights":[-1.717428E-2,-1.13185376E-1,1.9471145E-1,8.078894E-2,-2.1940272E-1,1.0632154E-2,5.2053314E-1,-7.900058E-3,5.5469245E-1,-2.8343844E-1,1.5302756E-1,-5.5820912E-2,5.1485723E-1,2.126312E-1,8.047011E-1,7.0498073E-1,-6.780056E-2,-1.319776E-1,1.0986598E0,-4.0079564E-1,-1.24428704E-1,-5.6814283E-1,3.7001526E-1,1.624824E-1,-2.5533906E-1,-1.9100286E-1,1.2034174E0,-1.295524E-2,1.1646179E0,4.6636242E-1,1.3022085E0,9.854632E-1,-3.2309538E-1,-1.5307201E-1,4.1757512E-1,9.502208E-1,-6.870459E-2,1.367385E-1,-5.4449644E-2,-1.0923366E-1,-4.7645536E-1,5.000443E-1,-2.2064826E-1,-6.931861E-2,2.4153976E-2,6.331259E-1,-5.929205E-1,4.6420418E-2,1.114324E0,5.6145098E-2,-4.610679E-1,8.205146E-2,-5.6355155E-1,1.3584088E-1,1.18458345E-4,-1.6818005E-1,9.502208E-1,1.33682E-1,1.18458345E-4,7.3741686E-1,-3.5152435E-1,1.3847513E-1,1.18458345E-4,-4.2772625E-2,1.1915085E0,-4.7909893E-2,1.18458345E-4,-2.2958452E-1,3.3744806E-1,-5.990065E-2,6.110915E-1,1.2029898E-1,1.18458345E-4,3.831938E-1,-5.5174226E-1,-6.4990735E-1,-3.215252E-1,7.119814E-1,-5.6659378E-2,-1.1593125E-1,-6.1750335E-1,8.3036745E-1,-3.6788508E-1,-6.731333E-2,1.18458345E-4,-4.2715293E-1,2.646512E-1,1.295638E-1,2.4153976E-2,6.158708E-1,-3.2039496E-1,1.5982543E-1,-5.312756E-1,1.18458345E-4,-6.565153E-2,5.410652E-1,-5.007134E-1,1.2029898E-1,1.18458345E-4,9.693418E-1,8.4109895E-2,8.590063E-2,-6.565153E-2,1.18458345E-4,1.3518593E-1,-1.0420083E-2,-5.875626E-2,6.6487536E-2,-4.9061667E-2,8.5279405E-2,-2.8162299E-2,1.0491047E-1,-4.0068604E-2,-7.0902765E-2,1.746357E-4,4.3009542E-2,-6.742017E-2,-7.971168E-3,-5.9098404E-2,2.4961546E-2,1.2111025E-1,-2.215438E-2,4.1078366E-2,-7.2048604E-2,4.1561857E-2,1.785437E-2,1.0433755E-1,4.3009542E-2,-6.216365E-2,4.3009542E-2,-4.9623754E-2,-6.656448E-2,4.4847522E-2,1.0317715E-1,-5.8438074E-2,6.508983E-2,-5.0717514E-2,-5.6659378E-2,1.0369016E-1,8.410989E-3,-6.3663356E-2,-2.4348227E-2,9.770501E-2,8.590063E-2,-6.039629E-2,1.08411826E-1,-1.1877959E-2,-4.5162976E-2,1.0369016E-1],"categories":[],"categories_nodes":[],"categories_segments":[],"categories_sizes":[],"default_left":[0,0,0,0,0,0,0,0,0,0,0,0,0,0,0,0,0,0,0,0,0,0,0,0,0,0,0,0,0,0,0,0,0,0,0,0,0,0,0,0,0,0,0,0,0,0,0,0,0,0,0,0,0,0,0,0,0,0,0,0,0,0,0,0,0,0,0,0,0,0,0,0,0,0,0,0,0,0,0,0,0,0,0,0,0,0,0,0,0,0,0,0,0,0,0,0,0,0,0,0,0,0,0,0,0,0,0,0,0,0,0,0,0,0,0,0,0,0,0,0,0,0,0,0,0,0,0,0,0,0,0,0,0,0,0,0,0,0,0,0,0,0,0,0,0,0,0,0,0],"id":2,"left_children":[1,3,5,7,9,11,13,15,17,19,21,23,25,27,29,31,33,35,37,39,41,43,45,47,49,51,53,55,57,59,61,63,65,67,69,71,-1,-1,-1,73,75,77,79,-1,-1,81,83,85,87,89,91,-1,93,-1,-1,95,97,-1,-1,99,101,-1,-1,-1,103,-1,-1,105,107,-1,109,-1,-1,111,113,115,117,119,-1,121,123,125,127,-1,-1,129,131,-1,-1,133,135,137,139,-1,-1,141,143,-1,-1,145,147,-1,-1,-1,-1,-1,-1,-1,-1,-1,-1,-1,-1,-1,-1,-1,-1,-1,-1,-1,-1,-1,-1,-1,-1,-1,-1,-1,-1,-1,-1,-1,-1,-1,-1,-1,-1,-1,-1,-1,-1,-1,-1,-1,-1,-1,-1,-1,-1],"loss_changes":[1.9752651E1,1.3782367E1,1.8155735E1,9.970417E0,1.034507E1,6.546226E0,9.3916855E0,8.619058E0,1.4112623E1,6.8347893E0,1.0228979E1,7.5662117E0,1.1285818E1,1.1572283E1,8.8995285E0,4.83014E0,7.7653894E0,1.111794E1,1.0005016E1,4.620571E0,9.610941E0,1.7066164E0,1.2998022E1,9.129472E0,5.8350754E0,5.02055E0,2.1695538E0,6.8122396E0,2.0660677E0,8.057193E0,2.3935661E0,4.16092E0,2.0832586E-1,6.045006E0,5.8888264E0,1.5160866E0,0E0,0E0,0E0,1.0003799E1,4.302456E0,5.2447405E0,5.6508484E0,0E0,0E0,8.126733E0,5.349157E-1,7.876512E0,1.1095314E0,7.9849043E0,2.46951E0,0E0,4.959967E-1,0E0,0E0,9.508906E0,1.5160866E0,0E0,0E0,3.9703808E0,4.0465307E0,0E0,0E0,0E0,2.1376734E0,0E0,0E0,6.1392756E0,6.2531123E0,0E0,5.435748E0,0E0,0E0,1.1831134E1,2.0974607E0,2.3424683E0,5.859762E0,3.9230576E0,0E0,6.220174E0,3.33352E0,4.451025E0,1.7280364E0,0E0,0E0,1.6394582E0,9.197981E0,0E0,0E0,8.19183E0,4.456955E0,4.6179214E0,3.2549686E0,0E0,0E0,4.678871E0,4.3354464E0,0E0,0E0,2.581726E0,4.603572E0,0E0,0E0,0E0,0E0,0E0,0E0,0E0,0E0,0E0,0E0,0E0,0E0,0E0,0E0,0E0,0E0,0E0,0E0,0E0,0E0,0E0,0E0,0E0,0E0,0E0,0E0,0E0,0E0,0E0,0E0,0E0,0E0,0E0,0E0,0E0,0E0,0E0,0E0,0E0,0E0,0E0,0E0,0E0,0E0,0E0,0E0,0E0,0E0],"parents":[2147483647,0,0,1,1,2,2,3,3,4,4,5,5,6,6,7,7,8,8,9,9,10,10,11,11,12,12,13,13,14,14,15,15,16,16,17,17,18,18,19,19,20,20,21,21,22,22,23,23,24,24,25,25,26,26,27,27,28,28,29,29,30,30,31,31,32,32,33,33,34,34,35,35,39,39,40,40,41,41,42,42,45,45,46,46,47,47,48,48,49,49,50,50,52,52,55,55,56,56,59,59,60,60,64,64,67,67,68,68,70,70,73,73,74,74,75,75,76,76,77,77,79,79,80,80,81,81,82,82,85,85,86,86,89,89,90,90,91,91,92,92,95,95,96,96,99,99,100,100],"right_children":[2,4,6,8,10,12,14,16,18,20,22,24,26,28,30,32,34,36,38,40,42,44,46,48,50,52,54,56,58,60,62,64,66,68,70,72,-1,-1,-1,74,76,78,80,-1,-1,82,84,86,88,90,92,-1,94,-1,-1,96,98,-1,-1,100,102,-1,-1,-1,104,-1,-1,106,108,-1,110,-1,-1,112,114,116,118,120,-1,122,124,126,128,-1,-1,130,132,-1,-1,134,136,138,140,-1,-1,142,144,-1,-1,146,148,-1,-1,-1,-1,-1,-1,-1,-1,-1,-1,-1,-1,-1,-1,-1,-1,-1,-1,-1,-1,-1,-1,-1,-1,-1,-1,-1,-1,-1,-1,-1,-1,-1,-1,-1,-1,-1,-1,-1,-1,-1,-1,-1,-1,-1,-1,-1,-1],"split_conditions":[1E0,2.2222222E-1,6.464168E-1,1E0,6.6210043E-1,7.9908675E-1,1E0,6.896552E-2,5.4703736E-1,5.4545456E-1,2.0014621E-1,5.1075244E-1,1E0,7.1694684E-1,2.3483138E-1,4.9294552E-1,1E0,3.1034482E-1,1E0,2.619571E-1,1.8743595E-1,5.728751E-1,1E0,9.277258E-1,2.9545453E-1,4.9612895E-1,5.0416315E-1,7.478873E-1,2.860093E-1,1E0,8.540735E-1,1.2157534E-1,6.193879E-1,8.7247E-1,1.4383562E-1,6.818182E-2,-6.870459E-2,1.367385E-1,-5.4449644E-2,3.897822E-1,5.0828177E-1,1E0,1E0,-6.931861E-2,2.4153976E-2,1E0,7.7885413E-1,1E0,4.1025642E-1,3.5897437E-1,2.125746E-1,8.205146E-2,5.9565973E-1,1.3584088E-1,1.18458345E-4,2.5950348E-1,8.277551E-1,1.33682E-1,1.18458345E-4,1E0,9.68788E-2,1.3847513E-1,1.18458345E-4,-4.2772625E-2,1E0,-4.7909893E-2,1.18458345E-4,7.378518E-1,9.5679057E-1,-5.990065E-2,5.0830287E-1,1.2029898E-1,1.18458345E-4,5.747136E-1,3.8630137E-1,1.5841584E-1,5.4430383E-1,2.3483138E-1,-5.6659378E-2,1E0,8.90793E-1,1E0,1.5927877E-1,-6.731333E-2,1.18458345E-4,2.5641026E-2,2.3847121E-1,1.295638E-1,2.4153976E-2,1E0,1E0,6.31082E-1,5.862069E-1,1.18458345E-4,-6.565153E-2,3.4263086E-1,1.9406393E-2,1.2029898E-1,1.18458345E-4,7.3194605E-1,1E0,8.590063E-2,-6.565153E-2,1.18458345E-4,1.3518593E-1,-1.0420083E-2,-5.875626E-2,6.6487536E-2,-4.9061667E-2,8.5279405E-2,-2.8162299E-2,1.0491047E-1,-4.0068604E-2,-7.0902765E-2,1.746357E-4,4.3009542E-2,-6.742017E-2,-7.971168E-3,-5.9098404E-2,2.4961546E-2,1.2111025E-1,-2.215438E-2,4.1078366E-2,-7.2048604E-2,4.1561857E-2,1.785437E-2,1.0433755E-1,4.3009542E-2,-6.216365E-2,4.3009542E-2,-4.9623754E-2,-6.656448E-2,4.4847522E-2,1.0317715E-1,-5.8438074E-2,6.508983E-2,-5.0717514E-2,-5.6659378E-2,1.0369016E-1,8.410989E-3,-6.3663356E-2,-2.4348227E-2,9.770501E-2,8.590063E-2,-6.039629E-2,1.08411826E-1,-1.1877959E-2,-4.5162976E-2,1.0369016E-1],"split_indices":[23,7,1,14,9,9,25,4,8,1,1,4,29,8,7,8,17,4,29,4,0,7,19,7,1,2,1,2,0,16,3,9,3,3,9,3,0,0,0,3,0,15,19,0,0,21,2,13,2,2,11,0,2,0,0,2,2,0,0,30,2,0,0,0,12,0,0,4,3,0,11,0,0,0,9,8,2,7,0,33,4,12,0,0,0,2,8,0,0,18,12,4,4,0,0,0,9,0,0,0,21,0,0,0,0,0,0,0,0,0,0,0,0,0,0,0,0,0,0,0,0,0,0,0,0,0,0,0,0,0,0,0,0,0,0,0,0,0,0,0,0,0,0,0,0,0,0,0,0],"split_type":[0,0,0,0,0,0,0,0,0,0,0,0,0,0,0,0,0,0,0,0,0,0,0,0,0,0,0,0,0,0,0,0,0,0,0,0,0,0,0,0,0,0,0,0,0,0,0,0,0,0,0,0,0,0,0,0,0,0,0,0,0,0,0,0,0,0,0,0,0,0,0,0,0,0,0,0,0,0,0,0,0,0,0,0,0,0,0,0,0,0,0,0,0,0,0,0,0,0,0,0,0,0,0,0,0,0,0,0,0,0,0,0,0,0,0,0,0,0,0,0,0,0,0,0,0,0,0,0,0,0,0,0,0,0,0,0,0,0,0,0,0,0,0,0,0,0,0,0,0],"sum_hessian":[9.688787E2,6.67075E2,3.018037E2,2.3611703E2,4.3095795E2,1.9350945E2,1.0829427E2,1.9972305E2,3.639398E1,3.6793423E2,6.302372E1,1.7176183E2,2.1747622E1,5.281565E1,5.5478626E1,1.4646357E1,1.8507669E2,1.6421673E1,1.9972305E1,2.1081877E2,1.5711546E2,1.4202528E1,4.882119E1,8.210837E1,8.965346E1,1.1095725E1,1.06518955E1,4.3495243E1,9.320409E0,3.417483E1,2.1303791E1,1.1539554E1,3.106803E0,1.5800313E2,2.7073568E1,5.3259478E0,1.1095725E1,1.7309332E1,2.6629739E0,4.393907E1,1.668797E2,2.0416134E1,1.3669933E2,1.2427212E1,1.775316E0,3.8613125E1,1.0208067E1,7.4119446E1,7.988922E0,3.595015E1,5.370331E1,2.6629739E0,8.432751E0,9.320409E0,1.3314869E0,3.8169292E1,5.3259478E0,7.988922E0,1.3314869E0,2.5742083E1,8.432751E0,1.9972305E1,1.3314869E0,1.3314869E0,1.0208067E1,1.775316E0,1.3314869E0,1.3714316E2,2.0859962E1,3.994461E0,2.3079107E1,3.994461E0,1.3314869E0,2.0859962E1,2.3079107E1,7.722625E1,8.965346E1,1.7309332E1,3.106803E0,1.0918193E2,2.7517399E1,3.2399517E1,6.213606E0,8.87658E0,1.3314869E0,2.3079107E1,5.1040337E1,6.213606E0,1.775316E0,1.4202528E1,2.1747622E1,5.3259478E0,4.837736E1,1.3314869E0,7.101264E0,1.1983383E1,2.6185911E1,3.994461E0,1.3314869E0,1.8640818E1,7.101264E0,1.3314869E0,7.101264E0,1.3314869E0,8.87658E0,1.025245E2,3.4618664E1,1.5090186E1,5.769777E0,1.819699E1,4.882119E0,1.1095725E1,9.764238E0,1.775316E1,5.3259478E0,1.3314869E0,7.589476E1,4.7933533E1,4.1719925E1,9.764238E0,7.545093E0,9.142877E1,1.775316E1,2.5298252E1,2.219145E0,8.432751E0,2.3966766E1,1.3314869E0,4.882119E0,1.3314869E0,2.1747622E1,7.988922E0,4.3051414E1,1.06518955E1,3.550632E0,3.106803E0,1.8640818E1,3.106803E0,2.219145E0,7.101264E0,4.1276096E1,4.43829E0,7.545093E0,1.3314869E0,2.4854424E1,1.6865501E1,1.775316E0,4.882119E0,2.219145E0],"tree_param":{"num_deleted":"0","num_feature":"34","num_nodes":"149","size_leaf_vector":"1"}},{"base_weights":[1.3395742E-2,-1.9302543E-1,1.0561386E-1,-1.4034548E-1,-4.8708394E-1,3.8879693E-1,-1.1185389E-2,-2.1572983E-1,1.1175226E-1,-5.981453E-1,3.6660913E-1,-1.2500745E-1,4.9911892E-1,-1.23015895E-1,2.9941002E-1,5.3137276E-2,-3.3537275E-1,6.515085E-1,-1.808791E-1,-7.155841E-2,2.4319194E-1,1.0008837E-1,-5.046121E-2,-3.6843917E-1,4.2110348E-1,3.179601E-1,9.3475807E-1,-5.4167975E-2,-4.9569172E-1,4.9982315E-1,-2.0184012E-1,-1.1697027E-1,6.7955214E-1,-3.924699E-1,2.864218E-1,-2.931228E-1,9.670262E-1,-5.182942E-1,2.1674797E-1,-4.6554394E-2,6.577371E-1,-6.4743865E-1,2.6540524E-1,8.787349E-1,-3.855308E-1,1.1363259E-1,8.4312534E-1,1.01896E0,-5.3433526E-2,1.06178366E-1,-2.5842357E-1,-5.849088E-1,2.3912446E-1,6.7951673E-1,-3.4958974E-1,-5.3101444E-1,5.647754E-1,-6.129891E-1,8.552994E-2,1.1740749E-1,1.9873379E-1,-5.68451E-1,-1.8206148E-1,7.518746E-1,-5.8157474E-2,4.578849E-2,-5.8474917E-2,1.1756438E0,-4.8357315E-2,6.5796226E-2,-6.855797E-2,8.0635494E-1,-6.464043E-2,9.604533E-2,1.0268961E-3,-6.979185E-2,-9.770993E-4,-1.5350185E-1,9.881293E-2,1.0461875E-2,1.1687882E-1,-5.344019E-2,1.4994048E-3,-2.6864976E-1,5.441942E-1,1.077553E0,-3.181E-1,1.2624393E0,4.2809722E-1,-2.6803566E-2,6.496954E-1,-8.595124E-2,-5.7321626E-1,4.0424302E-2,-6.2060297E-1,-3.4517875E-1,9.52174E-2,-3.8147217E-1,7.78884E-1,-5.5407685E-1,5.3648114E-1,1.0561591E-2,-5.923203E-1,1.0091152E0,-5.4929394E-2,-6.723161E-2,-1.0985757E-2,7.374986E-2,-2.6595978E-2,-5.794434E-2,9.17827E-2,-6.181211E-2,1.9918784E-2,5.471272E-2,-3.583004E-2,1.2571603E-1,-5.009659E-2,1.276862E-1,2.6523748E-2,-5.0409913E-2,5.4063942E-2,-4.7734935E-2,1.0774702E-1,7.7792354E-2,-5.8106452E-2,2.7499104E-2,-4.6949945E-2,6.954827E-2,-5.9792668E-2,5.8956603E-3,1.2263222E-1,-6.0110766E-2,4.220823E-2,1.3176768E-1,7.198899E-2,-5.477454E-2,6.855825E-2,1.0514556E-2,-4.7268488E-2,8.7518685E-2,-6.0378052E-2,2.9748127E-2,-2.9857958E-2,-6.1068874E-2,4.0176705E-2,-2.1120122E-2,-6.738629E-2,2.104817E-3,-5.0196726E-2,-6.2830515E-2,3.940801E-2,1.14313655E-1,5.285601E-2,-1.8597018E-2,-6.7711085E-2,-7.85E-5,8.4161155E-2,-6.6166416E-2,-8.32145E-3,1.20397024E-1,-2.7376644E-3],"categories":[],"categories_nodes":[],"categories_segments":[],"categories_sizes":[],"default_left":[0,0,0,0,0,0,0,0,0,0,0,0,0,0,0,0,0,0,0,0,0,0,0,0,0,0,0,0,0,0,0,0,0,0,0,0,0,0,0,0,0,0,0,0,0,0,0,0,0,0,0,0,0,0,0,0,0,0,0,0,0,0,0,0,0,0,0,0,0,0,0,0,0,0,0,0,0,0,0,0,0,0,0,0,0,0,0,0,0,0,0,0,0,0,0,0,0,0,0,0,0,0,0,0,0,0,0,0,0,0,0,0,0,0,0,0,0,0,0,0,0,0,0,0,0,0,0,0,0,0,0,0,0,0,0,0,0,0,0,0,0,0,0,0,0,0,0,0,0,0,0,0,0,0,0,0,0,0,0,0,0],"id":3,"left_children":[1,3,5,7,9,11,13,15,17,19,21,23,25,27,29,31,33,35,37,-1,39,-1,-1,41,43,45,47,49,51,53,55,57,59,61,63,65,67,69,71,-1,73,75,77,79,81,83,85,87,-1,89,91,93,95,97,99,101,103,105,107,-1,109,111,113,115,-1,-1,-1,117,-1,119,-1,121,-1,-1,-1,-1,-1,123,-1,-1,-1,-1,-1,125,127,129,131,133,135,137,139,141,143,-1,145,147,-1,149,151,153,155,-1,157,159,-1,-1,-1,-1,-1,-1,-1,-1,-1,-1,-1,-1,-1,-1,-1,-1,-1,-1,-1,-1,-1,-1,-1,-1,-1,-1,-1,-1,-1,-1,-1,-1,-1,-1,-1,-1,-1,-1,-1,-1,-1,-1,-1,-1,-1,-1,-1,-1,-1,-1,-1,-1,-1,-1,-1,-1,-1],"loss_changes":[1.9008358E1,4.7086334E0,2.2830341E1,5.0208187E0,4.622963E0,1.1487011E1,1.7041468E1,6.5396852E0,9.781637E0,4.272423E0,3.8022912E0,4.9976583E0,1.2813232E1,9.2272215E0,1.3149882E1,6.8244705E0,5.0985823E0,6.758996E0,5.540169E0,0E0,2.0182223E0,0E0,0E0,4.7217255E0,4.6568203E0,1.26571665E1,6.5162773E0,1.0034801E1,3.8188305E0,1.4445055E1,9.842285E0,5.1382723E0,3.015902E0,4.6751385E0,5.442974E0,1.627231E0,5.5675583E0,2.212315E0,1.03313055E1,0E0,7.919816E-1,5.776019E-1,2.7471504E0,1.6219716E0,3.0192763E-1,1.44190445E1,9.362284E0,6.077732E0,0E0,1.2440857E1,7.2623053E0,2.0279446E0,3.1558013E0,8.432831E0,3.3618088E0,1.1151814E0,6.417333E0,3.6794233E-1,8.636702E0,0E0,5.082527E0,2.7847195E0,7.9387426E0,6.0114784E0,0E0,0E0,0E0,1.0190334E0,0E0,1.8557634E0,0E0,4.655164E0,0E0,0E0,0E0,0E0,0E0,2.9580462E0,0E0,0E0,0E0,0E0,0E0,5.2175717E0,7.519662E0,4.139694E0,1.5812547E0,1.2386322E-2,4.1288967E0,8.230915E0,1.0089711E1,7.277836E0,1.9804401E0,0E0,9.255314E-1,2.668563E-1,0E0,1.641149E0,5.8595276E0,5.187311E-1,6.03858E-1,0E0,8.187828E-1,1.8141747E0,0E0,0E0,0E0,0E0,0E0,0E0,0E0,0E0,0E0,0E0,0E0,0E0,0E0,0E0,0E0,0E0,0E0,0E0,0E0,0E0,0E0,0E0,0E0,0E0,0E0,0E0,0E0,0E0,0E0,0E0,0E0,0E0,0E0,0E0,0E0,0E0,0E0,0E0,0E0,0E0,0E0,0E0,0E0,0E0,0E0,0E0,0E0,0E0,0E0,0E0,0E0,0E0,0E0,0E0,0E0,0E0,0E0],"parents":[2147483647,0,0,1,1,2,2,3,3,4,4,5,5,6,6,7,7,8,8,9,9,10,10,11,11,12,12,13,13,14,14,15,15,16,16,17,17,18,18,20,20,23,23,24,24,25,25,26,26,27,27,28,28,29,29,30,30,31,31,32,32,33,33,34,34,35,35,36,36,37,37,38,38,40,40,41,41,42,42,43,43,44,44,45,45,46,46,47,47,49,49,50,50,51,51,52,52,53,53,54,54,55,55,56,56,57,57,58,58,60,60,61,61,62,62,63,63,67,67,69,69,71,71,77,77,83,83,84,84,85,85,86,86,87,87,88,88,89,89,90,90,91,91,92,92,94,94,95,95,97,97,98,98,99,99,100,100,102,102,103,103],"right_children":[2,4,6,8,10,12,14,16,18,20,22,24,26,28,30,32,34,36,38,-1,40,-1,-1,42,44,46,48,50,52,54,56,58,60,62,64,66,68,70,72,-1,74,76,78,80,82,84,86,88,-1,90,92,94,96,98,100,102,104,106,108,-1,110,112,114,116,-1,-1,-1,118,-1,120,-1,122,-1,-1,-1,-1,-1,124,-1,-1,-1,-1,-1,126,128,130,132,134,136,138,140,142,144,-1,146,148,-1,150,152,154,156,-1,158,160,-1,-1,-1,-1,-1,-1,-1,-1,-1,-1,-1,-1,-1,-1,-1,-1,-1,-1,-1,-1,-1,-1,-1,-1,-1,-1,-1,-1,-1,-1,-1,-1,-1,-1,-1,-1,-1,-1,-1,-1,-1,-1,-1,-1,-1,-1,-1,-1,-1,-1,-1,-1,-1,-1,-1,-1,-1],"split_conditions":[1E0,1E0,1.7008623E-1,6.878028E-1,5.728751E-1,3.8961E-1,1E0,4.059406E-1,7.8385633E-1,1E0,3.20534E-1,4.4827002E-1,1E0,8.636364E-1,1E0,5.2012074E-1,9.342942E-1,1E0,1E0,-7.155841E-2,3.6242288E-1,1.0008837E-1,-5.046121E-2,1E0,4.5764482E-1,1E0,9.1320986E-1,4.145898E-1,1E0,8.250364E-1,7.378518E-1,1.9487415E-1,1.8041682E-1,1E0,1E0,4.5764482E-1,7.813309E-1,3.523943E-1,7.1131635E-1,-4.6554394E-2,5.2751034E-1,1.5753424E-1,3.582418E-1,1E0,4.923061E-1,5.2012074E-1,8.250364E-1,3.0710244E-1,-5.3433526E-2,1E0,4.4931507E-1,4.100193E-1,9.413902E-1,3.982998E-2,1E0,2.4282415E-1,6.548068E-1,7.0776254E-1,3.8961E-1,1.1740749E-1,7.586207E-1,7.329283E-1,2.820513E-1,1E0,-5.8157474E-2,4.578849E-2,-5.8474917E-2,7.8340536E-1,-4.8357315E-2,4.5753425E-1,-6.855797E-2,1E0,-6.464043E-2,9.604533E-2,1.0268961E-3,-6.979185E-2,-9.770993E-4,2.2772278E-1,9.881293E-2,1.0461875E-2,1.1687882E-1,-5.344019E-2,1.4994048E-3,2.5742576E-1,6.999007E-1,1.9987638E-1,8.478582E-2,1E0,1.7619574E-1,1E0,6.6210043E-1,4.1859558E-1,8.902824E-1,4.0424302E-2,1.1207839E-1,1E0,9.52174E-2,7.7864325E-1,1E0,6.925704E-2,9.139602E-1,1.0561591E-2,1E0,5.747136E-1,-5.4929394E-2,-6.723161E-2,-1.0985757E-2,7.374986E-2,-2.6595978E-2,-5.794434E-2,9.17827E-2,-6.181211E-2,1.9918784E-2,5.471272E-2,-3.583004E-2,1.2571603E-1,-5.009659E-2,1.276862E-1,2.6523748E-2,-5.0409913E-2,5.4063942E-2,-4.7734935E-2,1.0774702E-1,7.7792354E-2,-5.8106452E-2,2.7499104E-2,-4.6949945E-2,6.954827E-2,-5.9792668E-2,5.8956603E-3,1.2263222E-1,-6.0110766E-2,4.220823E-2,1.3176768E-1,7.198899E-2,-5.477454E-2,6.855825E-2,1.0514556E-2,-4.7268488E-2,8.7518685E-2,-6.0378052E-2,2.9748127E-2,-2.9857958E-2,-6.1068874E-2,4.0176705E-2,-2.1120122E-2,-6.738629E-2,2.104817E-3,-5.0196726E-2,-6.2830515E-2,3.940801E-2,1.14313655E-1,5.285601E-2,-1.8597018E-2,-6.7711085E-2,-7.85E-5,8.4161155E-2,-6.6166416E-2,-8.32145E-3,1.20397024E-1,-2.7376644E-3],"split_indices":[12,28,9,8,7,10,31,8,3,17,0,8,20,3,23,4,0,13,27,0,2,0,0,19,1,19,1,11,14,4,4,10,1,30,30,1,1,1,4,0,8,9,4,27,4,4,4,7,0,18,9,8,3,1,19,2,2,9,10,0,4,10,2,19,0,0,0,0,0,9,0,13,0,0,0,0,0,8,0,0,0,0,0,8,3,11,9,17,11,16,9,4,11,0,0,19,0,4,24,7,4,0,29,0,0,0,0,0,0,0,0,0,0,0,0,0,0,0,0,0,0,0,0,0,0,0,0,0,0,0,0,0,0,0,0,0,0,0,0,0,0,0,0,0,0,0,0,0,0,0,0,0,0,0,0,0,0,0,0,0,0],"split_type":[0,0,0,0,0,0,0,0,0,0,0,0,0,0,0,0,0,0,0,0,0,0,0,0,0,0,0,0,0,0,0,0,0,0,0,0,0,0,0,0,0,0,0,0,0,0,0,0,0,0,0,0,0,0,0,0,0,0,0,0,0,0,0,0,0,0,0,0,0,0,0,0,0,0,0,0,0,0,0,0,0,0,0,0,0,0,0,0,0,0,0,0,0,0,0,0,0,0,0,0,0,0,0,0,0,0,0,0,0,0,0,0,0,0,0,0,0,0,0,0,0,0,0,0,0,0,0,0,0,0,0,0,0,0,0,0,0,0,0,0,0,0,0,0,0,0,0,0,0,0,0,0,0,0,0,0,0,0,0,0,0],"sum_hessian":[9.96489E2,3.073726E2,6.891164E2,2.6192633E2,4.5446255E1,2.0054956E2,4.8856683E2,2.0174358E2,6.018276E1,4.047942E1,4.9668336E0,3.5426067E1,1.651235E2,3.5967062E2,1.2889621E2,6.229877E1,1.3944481E2,2.0726503E1,3.9456257E1,3.565233E1,4.8270903E0,2.7881503E0,2.1786833E0,2.4728535E1,1.0697531E1,1.17847115E2,4.7276382E1,3.04553E2,5.5117603E1,9.208216E1,3.6814053E1,4.9633656E1,1.2665113E1,1.2805481E2,1.1390003E1,5.207299E0,1.5519205E1,2.118002E1,1.8276236E1,1.7360287E0,3.0910618E0,1.7155672E1,7.5728636E0,6.768272E0,3.9292583E0,8.571436E1,3.2132755E1,4.5003387E1,2.272992E0,1.7088428E2,1.3366875E2,4.933201E1,5.785596E0,7.616867E1,1.5913489E1,2.5970148E1,1.0843904E1,1.3801107E1,3.583255E1,5.532795E0,7.1323185E0,6.880562E1,5.9249184E1,7.5013013E0,3.8887022E0,1.2970295E0,3.91027E0,1.373365E1,1.7855551E0,4.850568E0,1.6329453E1,1.0897863E1,7.3783727E0,1.7768962E0,1.3141656E0,1.5809641E1,1.3460312E0,5.2927017E0,2.2801619E0,2.2156546E0,4.5526175E0,2.6208577E0,1.3084006E0,4.5601894E1,4.011247E1,2.679537E1,5.337384E0,3.1065496E1,1.3937893E1,1.3805672E2,3.2827553E1,8.7177795E1,4.6490955E1,1.3585608E0,4.7973446E1,3.4634275E0,2.3221686E0,6.2795963E0,6.988907E1,1.3234027E1,2.679463E0,2.2176995E0,2.3752447E1,7.8193936E0,3.0245104E0,1.2044601E1,1.7565058E0,1.2166687E1,2.3665863E1,3.518704E0,3.6136143E0,6.480705E1,3.99857E0,1.1123057E1,4.8126125E1,5.3429694E0,2.158332E0,1.1997282E1,1.7363673E0,2.176624E0,2.673944E0,1.7676278E0,9.130236E0,1.4073713E0,3.8853302E0,1.2202955E1,3.339894E1,3.576588E1,4.3465877E0,3.5927474E0,2.3202621E1,3.997021E0,1.3403633E0,2.6898283E1,4.167213E0,2.6745055E0,1.1263388E1,1.0712077E2,3.0935942E1,2.8078266E1,4.7492886E0,3.0955927E1,5.622187E1,4.513007E1,1.3608854E0,6.0941386E0,4.1879307E1,1.2977933E0,2.1656342E0,4.9075456E0,1.3720506E0,2.7013876E1,4.2875195E1,3.9443676E0,9.2896595E0,1.3318324E0,1.3476305E0,2.06413E1,3.1111486E0,6.4459987E0,1.3733952E0],"tree_param":{"num_deleted":"0","num_feature":"34","num_nodes":"161","size_leaf_vector":"1"}},{"base_weights":[-9.942545E-4,1.9734971E-1,-8.892269E-2,2.6935774E-1,-3.378387E-1,-3.0006674E-1,3.2150173E-3,7.6877296E-1,2.1213616E-1,-4.5049953E-1,7.674115E-2,3.1985173E-3,-3.7771136E-1,-2.7523542E-2,5.6885594E-1,1.7588656E-1,1.073162E0,4.052928E-1,4.8472535E-2,-6.0176456E-1,2.3804185E-1,3.942401E-1,-6.8511315E-2,-4.6561342E-1,-1.6645731E-1,-5.28904E-2,6.20702E-1,8.3463544E-1,-4.3957213E-1,5.685527E-1,-5.6716856E-2,1.2140337E0,-4.1026402E-2,-2.3206545E-1,5.292603E-1,-6.5763086E-2,7.234139E-1,-6.658218E-1,9.248219E-3,-5.020039E-2,6.922353E-1,-2.0138901E-1,8.074451E-1,-5.016189E-1,5.3563498E-2,-2.4429387E-1,1.058945E-1,-8.051144E-2,4.507217E-1,1.1031601E0,-4.99653E-2,-3.810577E-1,1.1554328E0,-5.5265483E-2,-1.1591698E-2,-4.7568493E-2,9.856258E-2,1.3190943E-1,2.2726221E-2,-4.9145883E-1,5.627437E-1,8.7848246E-1,3.134214E-1,-4.028232E-1,1.09905146E-1,1.487068E-1,1.1734765E0,-7.021525E-2,-1.2361395E-4,9.7160086E-2,-3.679494E-5,4.7627157E-1,-5.348681E-1,1.0577831E0,-1.6663888E-3,-4.4228402E-1,-7.027268E-2,4.9021786E-1,-5.4970294E-2,-5.648078E-1,2.2161685E-2,-1.7369427E-1,1.0948676E-1,-6.035733E-2,7.321906E-1,-9.363326E-4,1.2764663E-1,-4.7378767E-1,9.1811635E-2,-5.312208E-2,2.021346E-3,1.3280521E-1,-4.267866E-2,3.9626427E-2,-6.126402E-2,1.0197365E-1,-4.2195022E-2,1.13526724E-1,1.6748855E-2,-5.297741E-2,4.3140084E-2,7.039048E-2,-4.8906133E-2,7.911738E-2,-1.7338156E-4,-3.5605848E-2,1.02890864E-1,3.8392697E-2,1.2500174E-1,9.3309395E-2,-4.0440463E-2,-6.319348E-2,8.3117624E-4,1.21816E-1,4.130741E-2,-5.337868E-2,8.080312E-2,4.2177606E-2,-4.607464E-2,-4.243761E-2,8.872647E-2,4.2455032E-2,-6.4987175E-2,-4.422745E-2,4.0267583E-2,-3.311643E-2,-2.8102654E-3,-4.76031E-3,5.2453708E-2,8.810893E-2,-4.5968175E-2,-2.674066E-4,-5.994798E-2],"categories":[],"categories_nodes":[],"categories_segments":[],"categories_sizes":[],"default_left":[0,0,0,0,0,0,0,0,0,0,0,0,0,0,0,0,0,0,0,0,0,0,0,0,0,0,0,0,0,0,0,0,0,0,0,0,0,0,0,0,0,0,0,0,0,0,0,0,0,0,0,0,0,0,0,0,0,0,0,0,0,0,0,0,0,0,0,0,0,0,0,0,0,0,0,0,0,0,0,0,0,0,0,0,0,0,0,0,0,0,0,0,0,0,0,0,0,0,0,0,0,0,0,0,0,0,0,0,0,0,0,0,0,0,0,0,0,0,0,0,0,0,0,0,0,0,0,0,0,0,0,0,0],"id":4,"left_children":[1,3,5,7,9,11,13,15,17,19,-1,21,23,25,27,29,31,33,35,37,39,41,-1,43,45,47,49,51,53,55,-1,57,-1,59,61,63,65,67,-1,-1,69,71,73,75,77,79,-1,81,83,85,87,89,91,-1,-1,-1,-1,-1,-1,93,95,97,99,101,103,105,107,-1,-1,-1,-1,109,111,113,115,117,-1,119,-1,121,123,125,127,-1,129,-1,-1,131,-1,-1,-1,-1,-1,-1,-1,-1,-1,-1,-1,-1,-1,-1,-1,-1,-1,-1,-1,-1,-1,-1,-1,-1,-1,-1,-1,-1,-1,-1,-1,-1,-1,-1,-1,-1,-1,-1,-1,-1,-1,-1,-1,-1,-1],"loss_changes":[1.7256392E1,1.1803275E1,1.333779E1,7.507948E0,4.8888116E0,4.9055824E0,8.331236E0,4.7223663E0,7.6375084E0,3.657384E0,0E0,1.1964376E1,3.0019627E0,7.507489E0,6.986116E0,3.3649993E0,4.214758E0,8.890171E0,1.0244735E1,1.3044033E0,2.631076E0,7.137953E0,0E0,2.205555E0,5.0548186E0,6.1341505E0,5.6195707E0,8.197383E0,1.4845073E-1,3.6576803E0,0E0,1.4103279E0,0E0,4.1449714E0,6.74963E0,6.795914E0,4.7987957E0,6.198425E-1,0E0,0E0,8.9628315E-1,3.0589325E0,3.4315386E0,9.9090385E-1,2.4985654E0,4.1198006E0,0E0,7.3916645E0,7.250675E0,1.9487591E0,3.7796314E0,3.0628425E-1,4.93281E0,0E0,0E0,0E0,0E0,0E0,0E0,1.8220096E0,2.7176332E0,6.208124E0,6.113193E0,4.093388E0,5.7622814E0,4.626952E0,1.629715E-1,0E0,0E0,0E0,0E0,2.2366076E0,4.6855807E-1,8.34074E-1,2.5853858E0,1.5811405E0,0E0,2.3511124E0,0E0,2.1164284E0,4.989142E0,6.4051266E0,8.999224E0,0E0,3.6990738E0,0E0,0E0,3.7318575E-1,0E0,0E0,0E0,0E0,0E0,0E0,0E0,0E0,0E0,0E0,0E0,0E0,0E0,0E0,0E0,0E0,0E0,0E0,0E0,0E0,0E0,0E0,0E0,0E0,0E0,0E0,0E0,0E0,0E0,0E0,0E0,0E0,0E0,0E0,0E0,0E0,0E0,0E0,0E0,0E0,0E0,0E0,0E0,0E0,0E0],"parents":[2147483647,0,0,1,1,2,2,3,3,4,4,5,5,6,6,7,7,8,8,9,9,11,11,12,12,13,13,14,14,15,15,16,16,17,17,18,18,19,19,20,20,21,21,23,23,24,24,25,25,26,26,27,27,28,28,29,29,31,31,33,33,34,34,35,35,36,36,37,37,40,40,41,41,42,42,43,43,44,44,45,45,47,47,48,48,49,49,50,50,51,51,52,52,59,59,60,60,61,61,62,62,63,63,64,64,65,65,66,66,71,71,72,72,73,73,74,74,75,75,77,77,79,79,80,80,81,81,82,82,84,84,87,87],"right_children":[2,4,6,8,10,12,14,16,18,20,-1,22,24,26,28,30,32,34,36,38,40,42,-1,44,46,48,50,52,54,56,-1,58,-1,60,62,64,66,68,-1,-1,70,72,74,76,78,80,-1,82,84,86,88,90,92,-1,-1,-1,-1,-1,-1,94,96,98,100,102,104,106,108,-1,-1,-1,-1,110,112,114,116,118,-1,120,-1,122,124,126,128,-1,130,-1,-1,132,-1,-1,-1,-1,-1,-1,-1,-1,-1,-1,-1,-1,-1,-1,-1,-1,-1,-1,-1,-1,-1,-1,-1,-1,-1,-1,-1,-1,-1,-1,-1,-1,-1,-1,-1,-1,-1,-1,-1,-1,-1,-1,-1,-1,-1],"split_conditions":[1E0,1E0,1.7465754E-1,6.930389E-2,1E0,1.8957627E-1,9.74359E-1,4.061303E-1,3.586119E-1,1E0,7.674115E-2,1E0,6.818182E-1,1E0,1E0,2.7850062E-1,6.970664E-1,1.21009916E-1,8.965517E-1,8.3382326E-1,3.1249133E-1,3.448276E-1,-6.8511315E-2,1E0,8.686061E-1,9.4871795E-1,1E0,1.4410107E-1,1E0,2.6107514E-1,-5.6716856E-2,7.1108466E-1,-4.1026402E-2,5.943474E-1,1.9964279E-1,5.8987695E-1,1E0,8.4615386E-1,9.248219E-3,-5.020039E-2,1E0,6.930389E-2,1E0,1E0,5.805887E-1,1E0,1.058945E-1,5.116929E-1,3.8165393E-1,1.900685E-1,5.728751E-1,5.140276E-1,8.173516E-1,-5.5265483E-2,-1.1591698E-2,-4.7568493E-2,9.856258E-2,1.3190943E-1,2.2726221E-2,4.050475E-2,1.6296978E-1,7.939023E-1,2.2761378E-1,2.527487E-1,2.9640055E-1,4.6849316E-1,2.9690367E-1,-7.021525E-2,-1.2361395E-4,9.7160086E-2,-3.679494E-5,3.9588767E-1,4.9968252E-1,5.7909197E-1,3.1539E-1,2.0600156E-1,-7.027268E-2,3.6938033E-1,-5.4970294E-2,7.2727275E-1,1E0,5.1724136E-1,4.8767123E-1,-6.035733E-2,9.113854E-1,-9.363326E-4,1.2764663E-1,1.7948718E-1,9.1811635E-2,-5.312208E-2,2.021346E-3,1.3280521E-1,-4.267866E-2,3.9626427E-2,-6.126402E-2,1.0197365E-1,-4.2195022E-2,1.13526724E-1,1.6748855E-2,-5.297741E-2,4.3140084E-2,7.039048E-2,-4.8906133E-2,7.911738E-2,-1.7338156E-4,-3.5605848E-2,1.02890864E-1,3.8392697E-2,1.2500174E-1,9.3309395E-2,-4.0440463E-2,-6.319348E-2,8.3117624E-4,1.21816E-1,4.130741E-2,-5.337868E-2,8.080312E-2,4.2177606E-2,-4.607464E-2,-4.243761E-2,8.872647E-2,4.2455032E-2,-6.4987175E-2,-4.422745E-2,4.0267583E-2,-3.311643E-2,-2.8102654E-3,-4.76031E-3,5.2453708E-2,8.810893E-2,-4.5968175E-2,-2.674066E-4,-5.994798E-2],"split_indices":[12,33,9,4,28,2,2,1,11,22,0,23,1,4,23,11,10,11,4,4,4,4,0,14,7,0,18,3,18,3,0,11,0,8,9,1,25,0,0,0,19,4,32,17,3,25,0,11,8,9,7,0,9,0,0,0,0,0,0,10,1,4,9,1,8,9,1,0,0,0,0,1,1,11,3,2,0,2,0,1,24,4,9,0,3,0,0,0,0,0,0,0,0,0,0,0,0,0,0,0,0,0,0,0,0,0,0,0,0,0,0,0,0,0,0,0,0,0,0,0,0,0,0,0,0,0,0,0,0,0,0,0,0],"split_type":[0,0,0,0,0,0,0,0,0,0,0,0,0,0,0,0,0,0,0,0,0,0,0,0,0,0,0,0,0,0,0,0,0,0,0,0,0,0,0,0,0,0,0,0,0,0,0,0,0,0,0,0,0,0,0,0,0,0,0,0,0,0,0,0,0,0,0,0,0,0,0,0,0,0,0,0,0,0,0,0,0,0,0,0,0,0,0,0,0,0,0,0,0,0,0,0,0,0,0,0,0,0,0,0,0,0,0,0,0,0,0,0,0,0,0,0,0,0,0,0,0,0,0,0,0,0,0,0,0,0,0,0,0],"sum_hessian":[9.874615E2,3.029161E2,6.845454E2,2.674308E2,3.5485313E1,2.072809E2,4.772645E2,2.6213242E1,2.4121754E2,3.2740406E1,2.744908E0,4.2447556E1,1.6483334E2,4.5356766E2,2.3696835E1,9.427761E0,1.678548E1,1.0996268E2,1.3125488E2,2.6946568E1,5.7938375E0,2.7341576E1,1.510598E1,1.1554954E2,4.9283802E1,4.3737054E2,1.6197111E1,1.8890444E1,4.8063912E0,6.321841E0,3.1059206E0,1.54955635E1,1.2899158E0,1.7763348E1,9.2199326E1,1.13027275E2,1.8227602E1,2.470776E1,2.2388082E0,2.16348E0,3.6303573E0,1.1408707E1,1.593287E1,1.0808738E2,7.4621525E0,4.7093124E1,2.1906757E0,4.1542627E2,2.1944283E1,9.045313E0,7.1517987E0,3.9048364E0,1.4985607E1,3.0375514E0,1.7688397E0,1.7642094E0,4.557631E0,1.3700146E1,1.7954183E0,1.3680314E1,4.0830336E0,3.404509E1,5.815424E1,3.8281765E1,7.474551E1,8.589569E0,9.638033E0,2.3373484E1,1.334276E0,2.2998676E0,1.3304896E0,3.6214314E0,7.7872753E0,1.1933364E1,3.9995053E0,8.593296E1,2.215442E1,4.4375634E0,3.0245888E0,2.0869694E1,2.6223433E1,2.7878476E2,1.3664153E2,4.3829074E0,1.7561375E1,1.3466403E0,7.698673E0,5.3292603E0,1.8225383E0,2.6058388E0,1.2989978E0,1.3656346E1,1.3292611E0,1.3705126E0,1.2309801E1,2.7644672E0,1.3185663E0,2.4573362E1,9.471727E0,6.7097154E0,5.1444523E1,2.2495868E0,3.6032177E1,9.666923E0,6.507859E1,5.837466E0,2.7521036E0,1.3834264E0,8.254606E0,2.3453414E0,1.27609E0,6.4680347E0,1.3192407E0,8.843896E0,3.089468E0,2.619059E0,1.3804462E0,1.3407183E0,8.459224E1,1.3224589E0,3.1151047E0,1.33632E0,1.9533373E1,1.1736342E1,1.448709E1,1.333166E2,1.4546814E2,9.976673E1,3.6874794E1,1.5842899E1,1.7184751E0,1.3374742E0,3.9917862E0],"tree_param":{"num_deleted":"0","num_feature":"34","num_nodes":"133","size_leaf_vector":"1"}},{"base_weights":[-1.9232836E-2,-9.734155E-2,1.5412103E-1,7.1565926E-2,-2.0131983E-1,-5.6777716E-2,3.7326205E-1,-3.8867116E-2,4.5014697E-1,-2.618033E-1,1.2894416E-1,3.2691276E-1,-2.2477628E-1,5.7335585E-1,-6.957525E-2,5.7970184E-1,-1.1084365E-1,6.310499E-1,-3.4215286E-1,-1.7920773E-1,-4.8675168E-1,1.1418352E-1,-3.5000354E-2,1.0505363E-1,1.1460382E0,5.167459E-2,-4.0350768E-1,1.6475905E-1,7.639631E-1,1.7923555E-1,-6.834442E-2,3.348887E-2,1.18386805E-1,3.580244E-2,-2.9029566E-1,4.3908012E-1,1.2253318E-1,-6.685165E-2,9.050847E-2,-2.618831E-1,2.0631884E-1,-5.134957E-1,5.846634E-2,-6.726574E-2,1.0613558E-1,-2.801731E-1,6.144064E-1,1.2218311E-1,3.834713E-2,-2.6408836E-1,4.8419964E-1,4.6149078E-1,-5.528402E-1,-1.0567601E-1,1.08631246E-1,8.4240043E-1,-2.6429108E-1,4.5418763E-1,-4.1857302E-1,-6.201004E-2,5.4712874E-1,3.005435E-1,-2.4779707E-1,-3.797132E-1,6.5763766E-1,8.1413877E-1,9.335376E-2,-1.7395368E-1,-6.44869E-1,4.208629E-1,-4.984014E-1,-6.0872805E-1,-2.2002618E-1,2.517481E-1,-5.4163945E-1,-5.532593E-1,1.07772686E-1,-5.8760382E-2,1.0134019E0,-4.2227098E-1,9.566695E-2,-3.6031224E-3,1.1076293E-1,-5.117468E-2,7.8326714E-1,2.3417642E-2,-5.8210105E-1,9.8421834E-2,-3.6468065E-1,1.0988059E0,5.539426E-1,-5.6194484E-2,4.0700104E-2,-5.928889E-2,7.0821625E-1,-6.5884225E-2,3.9567977E-2,-4.1095097E-2,8.1778996E-2,-1.3140752E-2,5.621874E-2,-1.1597798E-3,-5.6449678E-2,8.502132E-2,-4.45157E-2,1.1073985E-1,-4.9033955E-2,-1.5188964E-2,1.0602303E-1,-3.4259107E-2,8.806643E-2,-2.4763739E-2,2.98041E-2,-6.928689E-2,4.380228E-2,4.0425523E-3,1.15394406E-1,2.4300985E-2,-6.5889835E-2,-1.2665467E-2,-6.3196234E-2,3.0435795E-2,-6.1133903E-2,-3.7800994E-2,5.3995598E-2,-6.375891E-2,2.5990836E-3,-6.444922E-2,2.4169931E-2,1.0350139E-2,1.1860414E-1,8.0735676E-2,-5.334437E-2,1.0123362E-1,-4.3413028E-2,-4.2356227E-2,1.0751176E-1,-2.4222385E-5,-6.1117362E-2,8.925008E-2,-5.1693946E-2,1.3506894E-2,1.2374003E-1,-3.5071354E-2,8.761409E-2,9.758646E-2,1.956535E-2],"categories":[],"categories_nodes":[],"categories_segments":[],"categories_sizes":[],"default_left":[0,0,0,0,0,0,0,0,0,0,0,0,0,0,0,0,0,0,0,0,0,0,0,0,0,0,0,0,0,0,0,0,0,0,0,0,0,0,0,0,0,0,0,0,0,0,0,0,0,0,0,0,0,0,0,0,0,0,0,0,0,0,0,0,0,0,0,0,0,0,0,0,0,0,0,0,0,0,0,0,0,0,0,0,0,0,0,0,0,0,0,0,0,0,0,0,0,0,0,0,0,0,0,0,0,0,0,0,0,0,0,0,0,0,0,0,0,0,0,0,0,0,0,0,0,0,0,0,0,0,0,0,0,0,0,0,0,0,0,0,0,0,0,0,0,0,0],"id":5,"left_children":[1,3,5,7,9,11,13,15,17,19,21,23,25,27,29,31,33,35,37,39,41,-1,43,45,47,49,51,53,55,57,-1,59,-1,61,63,65,-1,-1,-1,67,69,71,-1,-1,73,75,77,-1,-1,79,81,83,85,87,-1,89,91,93,95,-1,97,99,101,103,105,107,109,111,113,115,117,119,121,123,125,127,-1,-1,129,131,-1,133,-1,-1,135,-1,137,-1,139,141,143,-1,-1,-1,145,-1,-1,-1,-1,-1,-1,-1,-1,-1,-1,-1,-1,-1,-1,-1,-1,-1,-1,-1,-1,-1,-1,-1,-1,-1,-1,-1,-1,-1,-1,-1,-1,-1,-1,-1,-1,-1,-1,-1,-1,-1,-1,-1,-1,-1,-1,-1,-1,-1,-1,-1,-1],"loss_changes":[1.3439578E1,1.2028983E1,1.4271917E1,1.0946083E1,8.497295E0,1.0257833E1,1.3450897E1,9.115195E0,8.688253E0,6.5725307E0,1.1041882E1,8.697155E0,5.479535E0,8.001469E0,7.4531574E0,7.005811E0,4.824622E0,4.99218E0,5.3416204E0,8.460988E0,3.0418968E0,0E0,5.2906404E0,7.8795314E0,1.2329769E-1,6.173515E0,8.936846E0,8.705524E0,5.939743E0,5.9339542E0,0E0,4.4489326E0,0E0,7.699796E0,7.2321978E0,4.8770046E0,0E0,0E0,0E0,7.2165203E0,7.336141E0,2.4899273E0,0E0,0E0,4.6967244E0,9.144483E0,8.858019E0,0E0,0E0,5.469766E0,5.7919183E0,3.670248E0,1.4666977E0,8.139113E0,0E0,4.2801895E0,1.3846643E0,6.9141173E0,2.5162888E0,0E0,2.2513711E0,6.061464E0,3.7024462E0,6.488617E0,4.398238E0,4.4858713E0,7.511331E0,6.2768593E0,2.3964462E0,1.0181936E1,1.523592E0,7.0755196E-1,5.22735E0,7.4926724E0,5.171337E-1,1.5956402E0,0E0,0E0,1.9667244E0,3.7003083E0,0E0,5.5457287E0,0E0,0E0,3.357986E0,0E0,9.469242E-1,0E0,4.863723E0,4.37117E0,9.961705E0,0E0,0E0,0E0,2.56711E0,0E0,0E0,0E0,0E0,0E0,0E0,0E0,0E0,0E0,0E0,0E0,0E0,0E0,0E0,0E0,0E0,0E0,0E0,0E0,0E0,0E0,0E0,0E0,0E0,0E0,0E0,0E0,0E0,0E0,0E0,0E0,0E0,0E0,0E0,0E0,0E0,0E0,0E0,0E0,0E0,0E0,0E0,0E0,0E0,0E0,0E0,0E0,0E0,0E0,0E0,0E0,0E0],"parents":[2147483647,0,0,1,1,2,2,3,3,4,4,5,5,6,6,7,7,8,8,9,9,10,10,11,11,12,12,13,13,14,14,15,15,16,16,17,17,18,18,19,19,20,20,22,22,23,23,24,24,25,25,26,26,27,27,28,28,29,29,31,31,33,33,34,34,35,35,39,39,40,40,41,41,44,44,45,45,46,46,49,49,50,50,51,51,52,52,53,53,55,55,56,56,57,57,58,58,60,60,61,61,62,62,63,63,64,64,65,65,66,66,67,67,68,68,69,69,70,70,71,71,72,72,73,73,74,74,75,75,78,78,79,79,81,81,84,84,86,86,88,88,89,89,90,90,94,94],"right_children":[2,4,6,8,10,12,14,16,18,20,22,24,26,28,30,32,34,36,38,40,42,-1,44,46,48,50,52,54,56,58,-1,60,-1,62,64,66,-1,-1,-1,68,70,72,-1,-1,74,76,78,-1,-1,80,82,84,86,88,-1,90,92,94,96,-1,98,100,102,104,106,108,110,112,114,116,118,120,122,124,126,128,-1,-1,130,132,-1,134,-1,-1,136,-1,138,-1,140,142,144,-1,-1,-1,146,-1,-1,-1,-1,-1,-1,-1,-1,-1,-1,-1,-1,-1,-1,-1,-1,-1,-1,-1,-1,-1,-1,-1,-1,-1,-1,-1,-1,-1,-1,-1,-1,-1,-1,-1,-1,-1,-1,-1,-1,-1,-1,-1,-1,-1,-1,-1,-1,-1,-1,-1,-1],"split_conditions":[1E0,2.2222222E-1,3.9875588E-1,8.083896E-1,6.6210043E-1,3.1034482E-1,1E0,1.0344828E-1,1E0,6.2376237E-1,7.18981E-1,7.916919E-1,3.9381617E-1,2.8231725E-1,6.924744E-1,1E0,4.40786E-1,1E0,1E0,5.373948E-1,8.2362336E-1,1.1418352E-1,3.5897437E-1,1E0,9.7152644E-1,1E0,4.6534654E-1,6.438356E-1,9.623722E-1,1E0,-6.834442E-2,5.0416315E-1,1.18386805E-1,4.370335E-1,8.5907817E-1,3.378633E-1,1.2253318E-1,-6.685165E-2,9.050847E-2,1E0,1E0,8.636364E-1,5.846634E-2,-6.726574E-2,1E0,1E0,1.8957627E-1,1.2218311E-1,3.834713E-2,6.732673E-1,2.0600156E-1,2.165491E-2,4.5454547E-2,3.652968E-2,1.08631246E-1,3.452055E-1,3.479452E-1,4.779704E-1,1E0,-6.201004E-2,1.2157534E-1,2.6075664E-1,6.4297307E-1,2.2772278E-1,8.3246715E-2,2.2190523E-1,5.2786094E-1,1E0,9.1320986E-1,6.420075E-1,3.7931034E-1,2.935576E-1,7.821782E-1,2.1407364E-1,7.1694684E-1,1E0,1.07772686E-1,-5.8760382E-2,1E0,1.6923927E-1,9.566695E-2,7.692308E-2,1.1076293E-1,-5.117468E-2,4.1049394E-1,2.3417642E-2,4.6153846E-1,9.8421834E-2,4.955064E-2,1.1431141E-1,4.370335E-1,-5.6194484E-2,4.0700104E-2,-5.928889E-2,4.2610505E-1,-6.5884225E-2,3.9567977E-2,-4.1095097E-2,8.1778996E-2,-1.3140752E-2,5.621874E-2,-1.1597798E-3,-5.6449678E-2,8.502132E-2,-4.45157E-2,1.1073985E-1,-4.9033955E-2,-1.5188964E-2,1.0602303E-1,-3.4259107E-2,8.806643E-2,-2.4763739E-2,2.98041E-2,-6.928689E-2,4.380228E-2,4.0425523E-3,1.15394406E-1,2.4300985E-2,-6.5889835E-2,-1.2665467E-2,-6.3196234E-2,3.0435795E-2,-6.1133903E-2,-3.7800994E-2,5.3995598E-2,-6.375891E-2,2.5990836E-3,-6.444922E-2,2.4169931E-2,1.0350139E-2,1.1860414E-1,8.0735676E-2,-5.334437E-2,1.0123362E-1,-4.3413028E-2,-4.2356227E-2,1.0751176E-1,-2.4222385E-5,-6.1117362E-2,8.925008E-2,-5.1693946E-2,1.3506894E-2,1.2374003E-1,-3.5071354E-2,8.761409E-2,9.758646E-2,1.956535E-2],"split_indices":[23,7,11,3,9,4,30,4,29,8,9,7,2,4,4,15,11,14,21,8,11,0,2,27,0,30,8,9,4,19,0,1,0,3,11,1,0,0,0,15,32,3,0,0,19,33,2,0,0,8,2,5,1,9,0,9,9,1,27,0,9,11,0,8,0,0,11,21,1,4,4,2,8,1,8,20,0,0,24,0,0,2,0,0,2,0,2,0,2,9,3,0,0,0,3,0,0,0,0,0,0,0,0,0,0,0,0,0,0,0,0,0,0,0,0,0,0,0,0,0,0,0,0,0,0,0,0,0,0,0,0,0,0,0,0,0,0,0,0,0,0,0,0,0,0,0,0],"split_type":[0,0,0,0,0,0,0,0,0,0,0,0,0,0,0,0,0,0,0,0,0,0,0,0,0,0,0,0,0,0,0,0,0,0,0,0,0,0,0,0,0,0,0,0,0,0,0,0,0,0,0,0,0,0,0,0,0,0,0,0,0,0,0,0,0,0,0,0,0,0,0,0,0,0,0,0,0,0,0,0,0,0,0,0,0,0,0,0,0,0,0,0,0,0,0,0,0,0,0,0,0,0,0,0,0,0,0,0,0,0,0,0,0,0,0,0,0,0,0,0,0,0,0,0,0,0,0,0,0,0,0,0,0,0,0,0,0,0,0,0,0,0,0,0,0,0,0],"sum_hessian":[9.9044244E2,6.830958E2,3.0734662E2,2.604003E2,4.226955E2,1.5699623E2,1.503504E2,2.0228934E2,5.8110973E1,3.5744202E2,6.525349E1,4.7519936E1,1.09476295E2,1.0335516E2,4.6995243E1,2.0349651E1,1.8193968E2,4.747476E1,1.0636214E1,2.6275967E2,9.468233E1,8.259489E0,5.6994E1,3.8280075E1,9.239861E0,4.3265976E1,6.621031E1,3.3470413E1,6.988475E1,3.394487E1,1.3050371E1,1.1241709E1,9.107944E0,1.0056205E2,8.137764E1,3.71977E1,1.02770605E1,8.79804E0,1.8381742E0,2.166255E2,4.6134174E1,9.288453E1,1.7977937E0,9.646183E0,4.7347816E1,2.2051973E1,1.6228104E1,7.856707E0,1.3831539E0,2.5233675E1,1.8032303E1,9.439911E0,5.6770405E1,2.6561203E1,6.9092083E0,6.509957E1,4.7851806E0,2.3415533E1,1.0529339E1,4.8557124E0,6.385996E0,5.197938E1,4.8582664E1,7.491081E1,6.4668283E0,1.7192106E1,2.0005592E1,1.7735982E2,3.9265682E1,3.567586E1,1.0458316E1,6.9316666E1,2.356787E1,3.9157104E1,8.190712E0,1.8853018E1,3.198954E0,3.9264884E0,1.2301615E1,2.2918098E1,2.315576E0,1.0674363E1,7.3579397E0,2.198872E0,7.241039E0,1.783998E0,5.4986404E1,4.5624332E0,2.199877E1,3.2977314E1,3.2122253E1,3.4280565E0,1.3571241E0,4.3112235E0,1.910431E1,8.27764E0,2.2516978E0,1.2925031E0,5.0934925E0,1.9795883E1,3.21835E1,2.8421852E1,2.0160812E1,3.1787643E0,7.173205E1,4.6718235E0,1.7950046E0,3.5681555E0,1.3623951E1,1.3239535E1,6.7660565E0,1.5382184E2,2.3537987E1,3.7943962E1,1.3217208E0,2.418173E1,1.1494128E1,1.7695976E0,8.688718E0,3.483847E0,6.583282E1,1.0166426E1,1.34014435E1,1.2196077E1,2.6961027E1,6.9009585E0,1.2897537E0,1.7081902E1,1.7711163E0,2.216903E0,1.0084712E1,1.3810279E0,2.153707E1,2.7748964E0,7.899467E0,1.3222228E0,5.918816E0,2.6646357E0,5.232177E1,1.8512769E0,2.0147493E1,4.394444E0,2.858287E1,8.412749E0,2.3709503E1,1.1956836E1,7.147474E0],"tree_param":{"num_deleted":"0","num_feature":"34","num_nodes":"147","size_leaf_vector":"1"}},{"base_weights":[-2.1768581E-2,-1.977961E-1,5.3679504E-2,7.6435786E-1,-2.1388444E-1,4.3341625E-1,-1.1849625E-2,1.013935E-1,2.1936009E-3,-1.3972513E-1,-3.800654E-1,2.109107E-1,8.131812E-1,1.17281206E-1,-1.7450559E-1,-3.4748316E-1,-3.8186762E-2,-5.1062906E-1,1.4039561E-1,4.2493433E-1,-3.4261253E-1,9.361601E-1,-5.529179E-2,-1.5834192E-3,5.3305954E-1,-2.6715475E-1,3.3061603E-1,-1.0976237E-1,-6.890995E-2,4.3088675E-2,-3.9081818E-1,-2.1819189E-1,-6.1476284E-1,-2.8565237E-1,6.152288E-1,1.8922348E-1,8.512617E-1,-5.635087E-1,4.367638E-1,1.0876305E0,3.3002242E-2,1.3753569E-1,-4.3730736E-1,8.332753E-1,1.403876E-1,-1.3138427E-1,-5.986122E-1,1.5461787E-2,7.0032674E-1,-6.618219E-2,1.7567484E-1,-4.7573292E-1,1.2375863E-1,-5.261891E-1,8.8022396E-2,-4.3745437E-1,4.436782E-1,-4.1693768E-1,-7.02672E-2,5.5719364E-2,-5.269394E-1,1.1117753E-1,-3.022589E-1,-4.8952934E-1,3.5630476E-1,1.1545255E-1,-5.433143E-2,-4.154651E-3,-6.832007E-2,8.9859545E-2,-4.2421952E-2,5.5524325E-1,1.1327255E-1,8.917677E-2,-5.6960918E-2,-5.548619E-1,2.4298282E-1,2.6576689E-2,-5.73754E-1,1.077024E0,1.3856827E-1,-2.2198327E-1,8.173056E-1,-3.811062E-1,1.5744048E-1,-6.664196E-1,-2.0716217E-1,-4.4998974E-1,1.0372859E-1,9.584123E-1,-3.4544066E-1,8.449277E-2,-3.3133056E-2,-5.9222884E-2,2.92355E-2,1.9822842E-2,-4.2024817E-2,-6.799558E-2,1.26136495E-2,4.244233E-2,-5.464183E-2,-4.1333966E-2,8.01787E-2,-6.464282E-2,-1.3771759E-2,-6.2358417E-2,7.013604E-4,-4.502303E-2,9.978527E-5,-8.5378E-4,-6.084276E-2,8.048207E-2,-1.5885936E-2,3.6960773E-2,-3.985639E-2,8.1847236E-2,-1.1955682E-3,-6.966468E-2,1.7395664E-2,-2.6778577E-2,3.9040837E-2,-5.4218035E-2,7.7421635E-2,-6.2351853E-2,-1.3804862E-2,8.171369E-3,1.1539724E-1,-5.171401E-2,1.06110275E-1,-5.5916615E-2,4.2249475E-2,1.0105407E-1,-4.117931E-2,1.0350368E-2,-4.6656404E-2,8.865094E-2,2.466262E-3,-7.0123516E-2,-2.1330351E-2,2.9110093E-2,-5.9993874E-2,-5.937469E-2,5.0329934E-3,1.11358695E-1,-1.3426122E-2,8.4770995E-4,-4.953977E-2],"categories":[],"categories_nodes":[],"categories_segments":[],"categories_sizes":[],"default_left":[0,0,0,0,0,0,0,0,0,0,0,0,0,0,0,0,0,0,0,0,0,0,0,0,0,0,0,0,0,0,0,0,0,0,0,0,0,0,0,0,0,0,0,0,0,0,0,0,0,0,0,0,0,0,0,0,0,0,0,0,0,0,0,0,0,0,0,0,0,0,0,0,0,0,0,0,0,0,0,0,0,0,0,0,0,0,0,0,0,0,0,0,0,0,0,0,0,0,0,0,0,0,0,0,0,0,0,0,0,0,0,0,0,0,0,0,0,0,0,0,0,0,0,0,0,0,0,0,0,0,0,0,0,0,0,0,0,0,0,0,0,0,0,0,0,0,0],"id":6,"left_children":[1,3,5,7,9,11,13,-1,-1,15,17,19,21,23,25,27,29,31,33,35,37,39,-1,41,43,45,47,49,-1,51,53,55,57,59,61,63,65,67,69,71,73,75,77,79,81,83,85,87,89,-1,91,93,95,97,-1,99,101,103,-1,-1,105,-1,107,109,111,-1,-1,113,-1,-1,-1,115,-1,-1,-1,117,119,121,123,125,127,129,131,133,135,137,139,141,-1,143,145,-1,-1,-1,-1,-1,-1,-1,-1,-1,-1,-1,-1,-1,-1,-1,-1,-1,-1,-1,-1,-1,-1,-1,-1,-1,-1,-1,-1,-1,-1,-1,-1,-1,-1,-1,-1,-1,-1,-1,-1,-1,-1,-1,-1,-1,-1,-1,-1,-1,-1,-1,-1,-1,-1,-1,-1],"loss_changes":[1.3052206E1,4.7272596E0,1.7128935E1,9.1670966E-1,3.5301886E0,8.388374E0,1.2367595E1,0E0,0E0,4.261186E0,6.128749E0,7.8727026E0,6.746233E0,1.6225548E1,1.22821045E1,5.316328E0,3.9498599E0,2.0424633E0,3.9508085E0,4.6106453E0,3.472642E0,4.6679173E0,0E0,1.5596574E1,8.487644E0,9.854454E0,4.7466054E0,6.473129E0,0E0,4.7642436E0,4.903016E0,3.142776E0,6.1406136E-1,2.4327257E0,4.500963E0,3.7880278E0,7.6564875E0,1.0040374E0,2.250896E0,7.724762E-2,3.5972917E0,1.4374583E1,3.9565067E0,6.8209896E0,8.234045E0,1.1446252E1,1.5569553E0,1.1436348E1,5.3961077E0,0E0,9.571111E0,1.5452867E0,4.057149E0,2.487689E0,0E0,1.712549E0,2.0355213E0,1.0967886E0,0E0,0E0,4.52883E-1,0E0,1.7978776E-1,3.788581E-1,6.1697283E0,0E0,0E0,6.864099E-1,0E0,0E0,0E0,6.455833E-1,0E0,0E0,0E0,2.8163128E0,1.290211E1,6.8441896E0,9.5814705E-1,2.228119E0,7.710302E0,5.053585E0,3.1854143E0,3.5666618E0,7.132903E0,7.0197105E-1,2.3038359E0,1.2197742E0,0E0,2.7465544E0,2.403571E-1,0E0,0E0,0E0,0E0,0E0,0E0,0E0,0E0,0E0,0E0,0E0,0E0,0E0,0E0,0E0,0E0,0E0,0E0,0E0,0E0,0E0,0E0,0E0,0E0,0E0,0E0,0E0,0E0,0E0,0E0,0E0,0E0,0E0,0E0,0E0,0E0,0E0,0E0,0E0,0E0,0E0,0E0,0E0,0E0,0E0,0E0,0E0,0E0,0E0,0E0,0E0,0E0,0E0,0E0,0E0,0E0],"parents":[2147483647,0,0,1,1,2,2,3,3,4,4,5,5,6,6,9,9,10,10,11,11,12,12,13,13,14,14,15,15,16,16,17,17,18,18,19,19,20,20,21,21,23,23,24,24,25,25,26,26,27,27,29,29,30,30,31,31,32,32,33,33,34,34,35,35,36,36,37,37,38,38,39,39,40,40,41,41,42,42,43,43,44,44,45,45,46,46,47,47,48,48,50,50,51,51,52,52,53,53,55,55,56,56,57,57,60,60,62,62,63,63,64,64,67,67,71,71,75,75,76,76,77,77,78,78,79,79,80,80,81,81,82,82,83,83,84,84,85,85,86,86,87,87,89,89,90,90],"right_children":[2,4,6,8,10,12,14,-1,-1,16,18,20,22,24,26,28,30,32,34,36,38,40,-1,42,44,46,48,50,-1,52,54,56,58,60,62,64,66,68,70,72,74,76,78,80,82,84,86,88,90,-1,92,94,96,98,-1,100,102,104,-1,-1,106,-1,108,110,112,-1,-1,114,-1,-1,-1,116,-1,-1,-1,118,120,122,124,126,128,130,132,134,136,138,140,142,-1,144,146,-1,-1,-1,-1,-1,-1,-1,-1,-1,-1,-1,-1,-1,-1,-1,-1,-1,-1,-1,-1,-1,-1,-1,-1,-1,-1,-1,-1,-1,-1,-1,-1,-1,-1,-1,-1,-1,-1,-1,-1,-1,-1,-1,-1,-1,-1,-1,-1,-1,-1,-1,-1,-1,-1,-1,-1],"split_conditions":[1E0,1.7123288E-2,1.2157534E-1,4.2520118E-1,6.583293E-1,1E0,5.2272725E-1,1.013935E-1,2.1936009E-3,3.5635063E-1,1E0,1E0,8.972624E-1,1E0,1E0,5.520476E-1,1E0,4.9294552E-1,1E0,1E0,1E0,8.265539E-1,-5.529179E-2,1E0,4.649077E-1,4.4383562E-1,4.9166018E-1,2.1778502E-1,-6.890995E-2,6.930389E-2,1E0,1E0,8.736031E-3,3.5897437E-1,7.046734E-1,2.1407364E-1,8.046054E-1,1.8491754E-1,5.681818E-1,2.5742576E-1,4.3747845E-1,1.3793103E-1,1E0,4.6534654E-1,7.194035E-1,2.7079913E-1,1E0,9.3714106E-1,1E0,-6.618219E-2,3.3705178E-1,5.728751E-1,8.640046E-1,1E0,8.8022396E-2,1.4356802E-1,7.378518E-1,6.3891757E-1,-7.02672E-2,5.5719364E-2,1E0,1.1117753E-1,1.4747463E-1,2.0600156E-1,6.660862E-1,1.1545255E-1,-5.433143E-2,8.2660025E-1,-6.832007E-2,8.9859545E-2,-4.2421952E-2,4.779704E-1,1.1327255E-1,8.917677E-2,-5.6960918E-2,4.7727272E-1,1.6296978E-1,1E0,1E0,1.5239726E-1,6.583293E-1,6.924744E-1,9.7152644E-1,3.0124006E-1,1.4747463E-1,1E0,6.8770826E-1,1E0,1.0372859E-1,9.4871795E-1,1.4930786E-1,8.449277E-2,-3.3133056E-2,-5.9222884E-2,2.92355E-2,1.9822842E-2,-4.2024817E-2,-6.799558E-2,1.26136495E-2,4.244233E-2,-5.464183E-2,-4.1333966E-2,8.01787E-2,-6.464282E-2,-1.3771759E-2,-6.2358417E-2,7.013604E-4,-4.502303E-2,9.978527E-5,-8.5378E-4,-6.084276E-2,8.048207E-2,-1.5885936E-2,3.6960773E-2,-3.985639E-2,8.1847236E-2,-1.1955682E-3,-6.966468E-2,1.7395664E-2,-2.6778577E-2,3.9040837E-2,-5.4218035E-2,7.7421635E-2,-6.2351853E-2,-1.3804862E-2,8.171369E-3,1.1539724E-1,-5.171401E-2,1.06110275E-1,-5.5916615E-2,4.2249475E-2,1.0105407E-1,-4.117931E-2,1.0350368E-2,-4.6656404E-2,8.865094E-2,2.466262E-3,-7.0123516E-2,-2.1330351E-2,2.9110093E-2,-5.9993874E-2,-5.937469E-2,5.0329934E-3,1.11358695E-1,-1.3426122E-2,8.4770995E-4,-4.953977E-2],"split_indices":[12,9,9,1,4,20,1,0,0,3,32,31,1,18,19,2,28,8,29,19,28,10,0,16,2,9,0,7,0,4,30,17,7,2,3,1,4,3,1,8,0,4,24,8,0,9,31,1,17,0,10,7,1,20,0,1,4,8,0,0,18,0,2,2,1,0,0,0,0,0,0,1,0,0,0,1,1,30,26,9,4,4,0,4,2,14,4,32,0,2,9,0,0,0,0,0,0,0,0,0,0,0,0,0,0,0,0,0,0,0,0,0,0,0,0,0,0,0,0,0,0,0,0,0,0,0,0,0,0,0,0,0,0,0,0,0,0,0,0,0,0,0,0,0,0,0,0],"split_type":[0,0,0,0,0,0,0,0,0,0,0,0,0,0,0,0,0,0,0,0,0,0,0,0,0,0,0,0,0,0,0,0,0,0,0,0,0,0,0,0,0,0,0,0,0,0,0,0,0,0,0,0,0,0,0,0,0,0,0,0,0,0,0,0,0,0,0,0,0,0,0,0,0,0,0,0,0,0,0,0,0,0,0,0,0,0,0,0,0,0,0,0,0,0,0,0,0,0,0,0,0,0,0,0,0,0,0,0,0,0,0,0,0,0,0,0,0,0,0,0,0,0,0,0,0,0,0,0,0,0,0,0,0,0,0,0,0,0,0,0,0,0,0,0,0,0,0],"sum_hessian":[9.8097784E2,2.938279E2,6.8714996E2,4.0674295E0,2.8976047E2,1.0030064E2,5.868493E2,2.7704017E0,1.2970278E0,2.0162488E2,8.813559E1,6.422586E1,3.6074776E1,3.272935E2,2.5955582E2,6.53959E1,1.3622899E2,7.0475006E1,1.766058E1,4.648458E1,1.7741278E1,3.3384186E1,2.6905875E0,2.553026E2,7.199088E1,2.1972507E2,3.9830765E1,3.9340973E1,2.6054926E1,1.1142521E2,2.4803774E1,1.93185E1,5.115651E1,9.51847E0,8.14211E0,3.086408E1,1.5620502E1,1.4039174E1,3.702104E0,2.8414482E1,4.9697037E0,1.9403494E2,6.1267647E1,4.016264E1,3.1828247E1,1.5686636E2,6.28587E1,2.2064253E1,1.7766512E1,1.2958848E1,2.6382126E1,1.433482E1,9.7090385E1,2.294596E1,1.8578156E0,1.4765943E1,4.5525575E0,1.7505672E1,3.3650837E1,1.8270607E0,7.6914086E0,5.14556E0,2.9965496E0,5.715496E0,2.5148584E1,1.2971793E1,2.6487086E0,2.6569982E0,1.1382175E1,2.3811626E0,1.3209413E0,3.2584348E0,2.5156048E1,1.851435E0,3.1182687E0,2.5081337E1,1.6895361E2,1.4108282E1,4.7159363E1,2.9323654E1,1.0838986E1,2.1168367E1,1.065988E1,8.39567E1,7.290966E1,5.2979156E1,9.879544E0,1.5543601E1,6.5206513E0,1.4316794E1,3.4497175E0,1.1084264E1,1.5297861E1,1.264579E1,1.6890298E0,8.595897E1,1.1131417E1,1.8534609E1,4.4113493E0,1.332345E0,1.3433598E1,1.2962269E0,3.2563305E0,8.88664E0,8.619033E0,6.3704953E0,1.3209136E0,1.6881713E0,1.3083785E0,1.3452444E0,4.3702517E0,1.3143356E1,1.2005227E1,1.3964928E0,1.2605054E0,1.9229934E0,1.3354415E0,2.103359E1,4.047747E0,3.76602E1,1.3129341E2,8.168792E0,5.9394903E0,4.1938286E1,5.221079E0,2.252321E0,2.7071333E1,6.592606E0,4.246381E0,1.3984319E1,7.184048E0,9.365314E0,1.2945662E0,1.2554145E1,7.1402565E1,1.0358055E1,6.2551605E1,4.8690403E1,4.2887554E0,4.4690824E0,5.4104624E0,1.1929233E1,3.6143684E0,1.2519687E1,1.7971069E0,1.307447E0,2.1422706E0],"tree_param":{"num_deleted":"0","num_feature":"34","num_nodes":"147","size_leaf_vector":"1"}},{"base_weights":[7.72204E-3,1.6740985E-1,-6.6123E-2,2.189184E-1,-2.1367982E-1,-2.5296465E-1,9.944789E-3,6.15669E-1,1.5738042E-1,-3.3125576E-1,7.772034E-2,-3.178915E-1,2.6013172E-1,-1.6206136E-2,5.4583436E-1,1.1960899E-1,7.957362E-1,3.4887642E-1,6.0134325E-2,-4.9808523E-1,5.6126696E-1,-1.7236795E-1,-4.9375463E-1,1.1081799E-1,-5.5768564E-2,3.6019105E-1,-5.7420794E-2,8.611167E-1,-4.3996406E-1,-1.2638496E-1,8.476131E-2,2.3391828E-1,1.0517657E0,-6.3284755E-2,4.159487E-1,-1.6976706E-3,4.571281E-1,-6.4908135E-1,2.817002E-1,-4.5773257E-2,1.0861212E-1,-2.3867194E-1,9.394737E-2,-5.3859156E-1,8.7201975E-2,1.0029187E-1,-2.8067106E-1,7.367674E-2,9.3187064E-1,1.686106E-2,-2.7737388E-1,-5.039919E-2,1.0905344E0,-1.6405252E-4,-5.625924E-2,2.6833764E-1,-5.8371257E-2,-5.5249E-2,6.775504E-1,1.1384575E0,-1.242371E-3,5.083562E-1,-1.5998136E-1,-4.5210782E-2,7.721453E-1,6.917296E-1,-5.809632E-2,-6.839918E-2,-1.2259929E-2,9.0704955E-2,-4.871282E-2,-4.3497366E-1,-5.784059E-2,-3.630412E-1,-6.713748E-2,-6.45803E-2,4.0861836E-1,-2.4023284E-1,1.218518E-1,1.0899695E0,-4.1722942E-2,1.9216187E-1,-1.2770157E-1,-4.6933183E-1,1.02665715E-1,1.1362718E0,3.7303668E-2,7.382863E-2,-4.7371436E-2,1.0196205E-1,-1.4429003E-2,3.7153367E-2,1.1841275E-1,-3.1551063E-2,5.895437E-2,-5.2212317E-2,4.7559682E-2,-3.3956435E-2,8.24053E-3,1.0772073E-1,-4.0298022E-2,9.8768726E-2,-9.4097416E-4,-5.7719488E-2,-3.3757053E-3,5.8805313E-2,-2.4831895E-2,-4.8615947E-2,9.674865E-2,-4.932551E-2,1.0585555E-1,8.884869E-2,-4.37289E-2,-9.894531E-3,1.2687083E-1,7.7054985E-2,9.605573E-3,-2.0165551E-2,5.3924568E-2,-3.020738E-2,-7.055039E-2,6.437596E-2,-6.2780365E-2,4.0040027E-2,1.1845517E-1],"categories":[],"categories_nodes":[],"categories_segments":[],"categories_sizes":[],"default_left":[0,0,0,0,0,0,0,0,0,0,0,0,0,0,0,0,0,0,0,0,0,0,0,0,0,0,0,0,0,0,0,0,0,0,0,0,0,0,0,0,0,0,0,0,0,0,0,0,0,0,0,0,0,0,0,0,0,0,0,0,0,0,0,0,0,0,0,0,0,0,0,0,0,0,0,0,0,0,0,0,0,0,0,0,0,0,0,0,0,0,0,0,0,0,0,0,0,0,0,0,0,0,0,0,0,0,0,0,0,0,0,0,0,0,0,0,0,0,0,0,0,0,0,0,0],"id":7,"left_children":[1,3,5,7,9,11,13,15,17,19,-1,21,23,25,27,29,31,33,35,37,39,41,43,-1,45,47,49,51,53,55,-1,57,59,-1,61,63,65,67,69,-1,-1,71,-1,73,-1,-1,75,77,79,81,83,-1,85,-1,-1,87,-1,-1,89,91,-1,93,95,97,99,101,-1,-1,-1,-1,-1,103,105,107,-1,-1,109,111,-1,113,-1,115,117,119,121,123,-1,-1,-1,-1,-1,-1,-1,-1,-1,-1,-1,-1,-1,-1,-1,-1,-1,-1,-1,-1,-1,-1,-1,-1,-1,-1,-1,-1,-1,-1,-1,-1,-1,-1,-1,-1,-1,-1,-1],"loss_changes":[1.1647398E1,6.177288E0,9.602758E0,6.6324434E0,4.648782E0,6.5946255E0,6.749582E0,3.1800098E0,4.4475055E0,5.4010267E0,0E0,4.367077E0,6.091287E0,7.1503506E0,7.343702E0,2.0666564E0,3.5980606E0,5.570879E0,3.9368203E0,3.6573324E0,3.6456094E0,7.3551807E0,5.260578E0,0E0,4.4126205E0,7.383187E0,6.786727E0,5.97295E0,3.26532E-1,1.7900745E0,0E0,3.7417467E0,1.6814232E0,0E0,4.128994E0,4.7401233E0,5.6653028E0,3.7608433E-1,3.0786736E0,0E0,0E0,3.2436085E0,0E0,1.5363865E0,0E0,0E0,4.062171E0,1.157431E1,3.6761093E0,7.9120746E0,7.697262E0,0E0,7.301903E-2,0E0,0E0,2.2823186E0,0E0,0E0,2.0082197E0,1.4574051E-1,0E0,4.585785E0,2.8437908E0,5.0330825E0,3.1207056E0,3.7620583E0,0E0,0E0,0E0,0E0,0E0,2.491229E0,6.184803E0,6.2143736E0,0E0,0E0,3.944439E0,6.054063E0,0E0,3.057169E0,0E0,7.7673917E0,8.551811E0,2.5458212E0,1.4636332E1,1.404953E-2,0E0,0E0,0E0,0E0,0E0,0E0,0E0,0E0,0E0,0E0,0E0,0E0,0E0,0E0,0E0,0E0,0E0,0E0,0E0,0E0,0E0,0E0,0E0,0E0,0E0,0E0,0E0,0E0,0E0,0E0,0E0,0E0,0E0,0E0,0E0,0E0,0E0,0E0,0E0],"parents":[2147483647,0,0,1,1,2,2,3,3,4,4,5,5,6,6,7,7,8,8,9,9,11,11,12,12,13,13,14,14,15,15,16,16,17,17,18,18,19,19,20,20,21,21,22,22,24,24,25,25,26,26,27,27,28,28,29,29,31,31,32,32,34,34,35,35,36,36,37,37,38,38,41,41,43,43,46,46,47,47,48,48,49,49,50,50,52,52,55,55,58,58,59,59,61,61,62,62,63,63,64,64,65,65,71,71,72,72,73,73,76,76,77,77,79,79,81,81,82,82,83,83,84,84,85,85],"right_children":[2,4,6,8,10,12,14,16,18,20,-1,22,24,26,28,30,32,34,36,38,40,42,44,-1,46,48,50,52,54,56,-1,58,60,-1,62,64,66,68,70,-1,-1,72,-1,74,-1,-1,76,78,80,82,84,-1,86,-1,-1,88,-1,-1,90,92,-1,94,96,98,100,102,-1,-1,-1,-1,-1,104,106,108,-1,-1,110,112,-1,114,-1,116,118,120,122,124,-1,-1,-1,-1,-1,-1,-1,-1,-1,-1,-1,-1,-1,-1,-1,-1,-1,-1,-1,-1,-1,-1,-1,-1,-1,-1,-1,-1,-1,-1,-1,-1,-1,-1,-1,-1,-1,-1,-1],"split_conditions":[1E0,1E0,1.7465754E-1,1.1788834E-1,1E0,8.518519E-1,9.74359E-1,1.5239726E-1,1E0,8.717949E-1,7.772034E-2,5.659957E-1,1.652005E-1,1.1564929E-1,1E0,5.805887E-1,4.5454547E-1,5.2511416E-2,1E0,1E0,1E0,8.3382326E-1,7.9469603E-1,1.1081799E-1,2.0014621E-1,1E0,1E0,1.1788834E-1,5.517861E-1,3.6552128E-1,8.476131E-2,4.190755E-1,7.0223445E-1,-6.3284755E-2,7.5465137E-1,6.5867996E-1,6.925207E-1,8.3382326E-1,4.498692E-1,-4.5773257E-2,1.0861212E-1,3.448276E-1,9.394737E-2,4.779704E-1,8.7201975E-2,1.0029187E-1,6.363636E-1,5.973862E-1,1E0,1E0,7.241379E-1,-5.039919E-2,1E0,-1.6405252E-4,-5.625924E-2,1E0,-5.8371257E-2,-5.5249E-2,8.8833356E-1,2.165491E-2,-1.242371E-3,7.261554E-2,6.4297307E-1,2.9545453E-1,6.548068E-1,1E0,-5.809632E-2,-6.839918E-2,-1.2259929E-2,9.0704955E-2,-4.871282E-2,6.07391E-1,1.8957627E-1,1E0,-6.713748E-2,-6.45803E-2,3.9593294E-1,2.125746E-1,1.218518E-1,2.0014621E-1,-4.1722942E-2,2.0376712E-1,9.0909094E-1,2.3483138E-1,1E0,1.8491754E-1,3.7303668E-2,7.382863E-2,-4.7371436E-2,1.0196205E-1,-1.4429003E-2,3.7153367E-2,1.1841275E-1,-3.1551063E-2,5.895437E-2,-5.2212317E-2,4.7559682E-2,-3.3956435E-2,8.24053E-3,1.0772073E-1,-4.0298022E-2,9.8768726E-2,-9.4097416E-4,-5.7719488E-2,-3.3757053E-3,5.8805313E-2,-2.4831895E-2,-4.8615947E-2,9.674865E-2,-4.932551E-2,1.0585555E-1,8.884869E-2,-4.37289E-2,-9.894531E-3,1.2687083E-1,7.7054985E-2,9.605573E-3,-2.0165551E-2,5.3924568E-2,-3.020738E-2,-7.055039E-2,6.437596E-2,-6.2780365E-2,4.0040027E-2,1.1845517E-1],"split_indices":[12,33,9,4,28,10,2,9,13,0,0,10,2,3,23,3,1,9,26,22,13,4,11,0,1,23,31,4,1,3,0,0,11,0,1,11,9,4,11,0,0,4,0,1,0,0,1,4,32,25,4,0,28,0,0,27,0,0,0,5,0,11,0,3,2,30,0,0,0,0,0,2,2,33,0,0,0,11,0,1,0,9,3,7,29,3,0,0,0,0,0,0,0,0,0,0,0,0,0,0,0,0,0,0,0,0,0,0,0,0,0,0,0,0,0,0,0,0,0,0,0,0,0,0,0],"split_type":[0,0,0,0,0,0,0,0,0,0,0,0,0,0,0,0,0,0,0,0,0,0,0,0,0,0,0,0,0,0,0,0,0,0,0,0,0,0,0,0,0,0,0,0,0,0,0,0,0,0,0,0,0,0,0,0,0,0,0,0,0,0,0,0,0,0,0,0,0,0,0,0,0,0,0,0,0,0,0,0,0,0,0,0,0,0,0,0,0,0,0,0,0,0,0,0,0,0,0,0,0,0,0,0,0,0,0,0,0,0,0,0,0,0,0,0,0,0,0,0,0,0,0,0,0],"sum_hessian":[9.857857E2,3.1131305E2,6.7447266E2,2.7462054E2,3.6692505E1,1.9447287E2,4.799998E2,3.566631E1,2.3895424E2,3.339556E1,3.2969444E0,1.7296628E2,2.1506592E1,4.5859073E2,2.1409052E1,9.941928E0,2.572438E1,7.960646E1,1.5934778E2,2.8508682E1,4.886879E0,9.573085E1,7.723542E1,5.1562924E0,1.6350298E1,4.449511E1,4.140956E2,1.6316967E1,5.0920854E0,8.048664E0,1.8932636E0,8.652161E0,1.7072218E1,4.5515122E0,7.505495E1,1.387354E2,2.0612389E1,2.4024282E1,4.4843993E0,1.704838E0,3.182041E0,9.108443E1,4.6464276E0,7.536686E1,1.8685641E0,2.2586706E0,1.4091628E1,3.0392086E1,1.4103024E1,3.1024426E2,1.03851364E2,2.1754603E0,1.4141507E1,1.3347006E0,3.7573845E0,4.541829E0,3.5068352E0,3.0320292E0,5.620132E0,1.5721698E1,1.3505211E0,6.4778595E1,1.0276349E1,1.3224107E2,6.4943256E0,1.7084957E1,3.527431E0,2.2249748E1,1.7745337E0,2.3738096E0,2.1105897E0,4.3000145E1,4.808428E1,3.4064655E1,4.13022E1,9.253129E0,4.8384986E0,2.4472116E1,5.9199686E0,1.2795604E1,1.30742E0,1.400664E2,1.7017786E2,6.8843544E1,3.500782E1,1.2745387E1,1.3961201E0,2.783859E0,1.7579701E0,3.7984629E0,1.8216689E0,1.3970234E0,1.4324674E1,5.552028E0,5.9226566E1,6.6600633E0,3.6162858E0,3.949132E1,9.274975E1,5.222018E0,1.2723078E0,1.1726431E1,5.358527E0,3.1422903E1,1.1577243E1,1.0475529E1,3.760875E1,3.1760372E1,2.304284E0,2.127452E0,2.711047E0,3.1158733E0,2.1356243E1,1.7306013E0,1.1065002E1,1.8957615E1,1.21108795E2,1.5381935E2,1.63585E1,4.163588E1,2.7207664E1,2.0178982E1,1.4828839E1,1.3569145E0,1.1388473E1],"tree_param":{"num_deleted":"0","num_feature":"34","num_nodes":"125","size_leaf_vector":"1"}},{"base_weights":[-7.4987607E-3,-9.338264E-2,1.7381294E-1,8.363558E-2,-1.982541E-1,3.0193811E-2,4.424626E-1,-1.3761625E-2,5.7934135E-1,-2.5547686E-1,1.2055157E-1,-3.7803456E-2,4.9994242E-1,1.6568923E-1,7.22555E-1,-1.0767195E-1,4.6044537E-1,-7.260332E-2,9.663612E-1,-3.7365112E-1,-1.0384494E-1,4.48076E-1,-3.660787E-1,1.5867975E-1,-2.351075E-1,-1.366261E-1,1.0295905E0,5.0120443E-1,-3.8150796E-1,8.252434E-1,-1.7544204E-1,2.4970436E-1,-2.300683E-1,-6.0723614E-2,6.669183E-1,9.830921E-2,-6.480422E-2,-5.5847816E-2,1.1666859E0,4.2750818E-1,-3.9558503E-1,4.222202E-1,-1.9481371E-1,-4.7085267E-1,7.7351415E-1,-5.8745354E-1,3.3635587E-1,1.9349558E-2,9.0728647E-1,-2.0269206E-2,-4.6133292E-1,7.973755E-2,-5.4148805E-1,1.1409102E-1,-2.2601988E-3,1.6727375E-3,1.0331494E0,7.032489E-1,-6.765538E-2,5.700063E-1,1.14604525E-1,-5.447063E-2,2.3265073E-1,-5.056791E-1,6.2690353E-1,-3.1619325E-1,2.5315428E-1,7.330694E-1,-4.2308304E-2,-5.6050785E-2,7.34183E-2,1.1987924E-1,3.981496E-2,1.0658138E-1,-4.7902364E-2,-1.5023175E-1,-4.602245E-1,7.3455626E-1,-2.73897E-1,-3.8392656E-2,-4.6037957E-1,-6.442224E-2,4.3927677E-2,1.0179319E0,9.754186E-2,-6.749959E-2,-6.499172E-2,-5.2552253E-2,8.576332E-2,-5.3283834E-1,1.3668694E-1,1.13806404E-1,-4.727617E-2,2.8463063E-1,-4.1326794E-1,-5.7785654E-1,-1.5016286E-1,1.733513E-3,-6.321519E-2,-5.1689327E-1,8.598754E-1,1.1249946E0,-2.039449E-3,-3.2874574E-3,9.776495E-2,7.699842E-1,-2.0480148E-1,-4.329728E-2,7.823091E-2,-6.846204E-2,3.6830533E-2,1.15669146E-1,2.3694351E-2,-3.7563484E-2,1.563864E-2,-1.7765118E-2,7.701361E-2,8.044954E-2,-4.1685265E-2,2.3685971E-2,-5.9099715E-2,-2.5410974E-2,-5.4851722E-2,9.994871E-2,-3.1533264E-2,-6.204185E-2,7.9437345E-2,2.3829727E-2,-4.2947445E-2,-6.0341716E-2,5.2964676E-2,1.21862784E-1,2.42446E-2,7.072562E-2,-6.0480285E-2,3.7294324E-2,-4.3723494E-2,-5.9141453E-2,2.0332406E-3,-2.1710625E-2,4.100991E-2,-1.7505987E-2,9.613208E-2,-5.621333E-2,1.6980154E-2,2.9250208E-2,-6.661005E-2,9.357175E-2,-6.4167045E-2,3.9760545E-2,-6.628961E-2,3.405156E-2,1.02365725E-1,3.5265014E-2,1.17652975E-1,9.669342E-2,3.072604E-3,7.265287E-2,-5.9444994E-2],"categories":[],"categories_nodes":[],"categories_segments":[],"categories_sizes":[],"default_left":[0,0,0,0,0,0,0,0,0,0,0,0,0,0,0,0,0,0,0,0,0,0,0,0,0,0,0,0,0,0,0,0,0,0,0,0,0,0,0,0,0,0,0,0,0,0,0,0,0,0,0,0,0,0,0,0,0,0,0,0,0,0,0,0,0,0,0,0,0,0,0,0,0,0,0,0,0,0,0,0,0,0,0,0,0,0,0,0,0,0,0,0,0,0,0,0,0,0,0,0,0,0,0,0,0,0,0,0,0,0,0,0,0,0,0,0,0,0,0,0,0,0,0,0,0,0,0,0,0,0,0,0,0,0,0,0,0,0,0,0,0,0,0,0,0,0,0,0,0,0,0,0,0,0,0,0,0,0,0],"id":8,"left_children":[1,3,5,7,9,11,13,15,17,19,21,23,25,27,29,31,33,35,37,39,41,43,45,47,49,51,53,55,57,59,61,63,65,-1,67,-1,-1,69,71,73,75,77,79,81,83,85,87,89,91,93,95,-1,97,-1,-1,99,101,103,-1,105,-1,-1,107,109,111,113,115,117,-1,-1,-1,-1,-1,-1,-1,119,121,123,125,127,129,-1,-1,131,133,-1,135,-1,-1,137,139,-1,-1,141,143,145,147,-1,-1,149,151,153,-1,-1,-1,155,157,-1,-1,-1,-1,-1,-1,-1,-1,-1,-1,-1,-1,-1,-1,-1,-1,-1,-1,-1,-1,-1,-1,-1,-1,-1,-1,-1,-1,-1,-1,-1,-1,-1,-1,-1,-1,-1,-1,-1,-1,-1,-1,-1,-1,-1,-1,-1,-1,-1,-1,-1,-1],"loss_changes":[1.525601E1,1.2357235E1,1.2137424E1,1.1982126E1,7.651678E0,6.6081185E0,8.379387E0,9.324093E0,1.035227E1,6.3133698E0,1.040446E1,7.0593195E0,8.959127E0,1.0553487E1,5.1421337E0,7.6967597E0,8.035852E0,1.0423768E1,5.3157406E0,3.6632748E0,7.5789165E0,1.1983327E1,4.302436E0,9.51087E0,4.402788E0,5.2574368E0,1.7117281E0,9.410342E0,7.5236692E0,3.3431053E0,1.0890381E0,1.31486E1,5.5158086E0,0E0,2.4359932E0,0E0,0E0,2.4671345E0,5.2845E-2,3.8547535E0,3.0085964E0,5.2912273E0,5.5587187E0,1.9843926E0,4.703657E0,8.9081717E-1,3.5783956E0,5.1292257E0,5.0964317E0,5.8223214E0,1.5148735E0,0E0,4.9218035E-1,0E0,0E0,9.019586E0,1.6826344E0,1.0823233E0,0E0,4.677534E0,0E0,0E0,1.7049202E0,2.6843333E0,6.0234594E0,3.1852427E0,4.6609063E0,2.6483994E0,0E0,0E0,0E0,0E0,0E0,0E0,0E0,7.29741E0,2.6470146E0,4.885604E0,3.4465528E0,9.361952E0,7.353304E0,0E0,0E0,3.0109444E0,4.2072186E0,0E0,8.215464E-1,0E0,0E0,4.6180677E-1,6.3919573E0,0E0,0E0,8.691956E0,1.9362063E0,2.636198E0,7.7446795E0,0E0,0E0,1.9506483E0,3.0070257E-1,2.137661E-1,0E0,0E0,0E0,3.3767366E0,2.8902178E0,0E0,0E0,0E0,0E0,0E0,0E0,0E0,0E0,0E0,0E0,0E0,0E0,0E0,0E0,0E0,0E0,0E0,0E0,0E0,0E0,0E0,0E0,0E0,0E0,0E0,0E0,0E0,0E0,0E0,0E0,0E0,0E0,0E0,0E0,0E0,0E0,0E0,0E0,0E0,0E0,0E0,0E0,0E0,0E0,0E0,0E0,0E0,0E0,0E0,0E0,0E0,0E0],"parents":[2147483647,0,0,1,1,2,2,3,3,4,4,5,5,6,6,7,7,8,8,9,9,10,10,11,11,12,12,13,13,14,14,15,15,16,16,17,17,18,18,19,19,20,20,21,21,22,22,23,23,24,24,25,25,26,26,27,27,28,28,29,29,30,30,31,31,32,32,34,34,37,37,38,38,39,39,40,40,41,41,42,42,43,43,44,44,45,45,46,46,47,47,48,48,49,49,50,50,52,52,55,55,56,56,57,57,59,59,62,62,63,63,64,64,65,65,66,66,67,67,75,75,76,76,77,77,78,78,79,79,80,80,83,83,84,84,86,86,89,89,90,90,93,93,94,94,95,95,96,96,99,99,100,100,101,101,105,105,106,106],"right_children":[2,4,6,8,10,12,14,16,18,20,22,24,26,28,30,32,34,36,38,40,42,44,46,48,50,52,54,56,58,60,62,64,66,-1,68,-1,-1,70,72,74,76,78,80,82,84,86,88,90,92,94,96,-1,98,-1,-1,100,102,104,-1,106,-1,-1,108,110,112,114,116,118,-1,-1,-1,-1,-1,-1,-1,120,122,124,126,128,130,-1,-1,132,134,-1,136,-1,-1,138,140,-1,-1,142,144,146,148,-1,-1,150,152,154,-1,-1,-1,156,158,-1,-1,-1,-1,-1,-1,-1,-1,-1,-1,-1,-1,-1,-1,-1,-1,-1,-1,-1,-1,-1,-1,-1,-1,-1,-1,-1,-1,-1,-1,-1,-1,-1,-1,-1,-1,-1,-1,-1,-1,-1,-1,-1,-1,-1,-1,-1,-1,-1,-1,-1,-1],"split_conditions":[1E0,2.2222222E-1,6.464168E-1,1E0,6.6210043E-1,8.173516E-1,1E0,1E0,5.4703736E-1,5.4545456E-1,6.999007E-1,5.1075244E-1,1E0,5.4425883E-1,8.181818E-1,2.3945628E-1,1.3113555E-1,1E0,4.923061E-1,2.2727273E-2,1.8743595E-1,2.527487E-1,1E0,9.277258E-1,4.6153846E-1,4.9612895E-1,9.0909094E-1,5.940594E-1,2.3259458E-1,2.3483138E-1,7.813309E-1,1E0,8.636364E-1,-6.0723614E-2,8.4068877E-1,9.830921E-2,-6.480422E-2,1.5927877E-1,4.9163786E-1,4.9612895E-1,2.619571E-1,6.870193E-1,1E0,5.728751E-1,5.116929E-1,1E0,8.3246715E-2,2.7722773E-1,4.1049394E-1,3.8636363E-1,1E0,7.973755E-2,1.724138E-1,1.1409102E-1,-2.2601988E-3,3.4263086E-1,8.4634864E-1,4.8360723E-1,-6.765538E-2,1E0,1.14604525E-1,-5.447063E-2,8.736031E-3,1E0,3.6633664E-1,8.652684E-1,1E0,6.018631E-1,-4.2308304E-2,-5.6050785E-2,7.34183E-2,1.1987924E-1,3.981496E-2,1.0658138E-1,-4.7902364E-2,5.747136E-1,1.9987638E-1,1E0,9.7779214E-1,2.020548E-1,4.1095892E-1,-6.442224E-2,4.3927677E-2,7.7885413E-1,4.375258E-1,-6.749959E-2,6.9564784E-1,-5.2552253E-2,8.576332E-2,5.764834E-1,1E0,1.13806404E-1,-4.727617E-2,1E0,1E0,1.9964279E-1,2.9016158E-1,1.733513E-3,-6.321519E-2,1E0,5.8179593E-1,1.9349316E-1,-2.039449E-3,-3.2874574E-3,9.776495E-2,1E0,9.68788E-2,-4.329728E-2,7.823091E-2,-6.846204E-2,3.6830533E-2,1.15669146E-1,2.3694351E-2,-3.7563484E-2,1.563864E-2,-1.7765118E-2,7.701361E-2,8.044954E-2,-4.1685265E-2,2.3685971E-2,-5.9099715E-2,-2.5410974E-2,-5.4851722E-2,9.994871E-2,-3.1533264E-2,-6.204185E-2,7.9437345E-2,2.3829727E-2,-4.2947445E-2,-6.0341716E-2,5.2964676E-2,1.21862784E-1,2.42446E-2,7.072562E-2,-6.0480285E-2,3.7294324E-2,-4.3723494E-2,-5.9141453E-2,2.0332406E-3,-2.1710625E-2,4.100991E-2,-1.7505987E-2,9.613208E-2,-5.621333E-2,1.6980154E-2,2.9250208E-2,-6.661005E-2,9.357175E-2,-6.4167045E-2,3.9760545E-2,-6.628961E-2,3.405156E-2,1.02365725E-1,3.5265014E-2,1.17652975E-1,9.669342E-2,3.072604E-3,7.265287E-2,-5.9444994E-2],"split_indices":[23,7,1,14,9,9,25,17,8,1,3,4,29,0,3,4,9,25,4,1,0,1,20,7,2,2,3,8,2,7,1,12,3,0,8,0,0,0,9,2,4,2,27,7,11,18,0,8,2,1,32,0,4,0,0,0,11,3,0,16,0,0,7,20,8,0,15,11,0,0,0,0,0,0,0,0,11,30,4,9,9,0,0,2,4,0,0,0,0,11,12,0,0,30,28,9,10,0,0,24,11,9,0,0,0,30,2,0,0,0,0,0,0,0,0,0,0,0,0,0,0,0,0,0,0,0,0,0,0,0,0,0,0,0,0,0,0,0,0,0,0,0,0,0,0,0,0,0,0,0,0,0,0,0,0,0,0,0,0],"split_type":[0,0,0,0,0,0,0,0,0,0,0,0,0,0,0,0,0,0,0,0,0,0,0,0,0,0,0,0,0,0,0,0,0,0,0,0,0,0,0,0,0,0,0,0,0,0,0,0,0,0,0,0,0,0,0,0,0,0,0,0,0,0,0,0,0,0,0,0,0,0,0,0,0,0,0,0,0,0,0,0,0,0,0,0,0,0,0,0,0,0,0,0,0,0,0,0,0,0,0,0,0,0,0,0,0,0,0,0,0,0,0,0,0,0,0,0,0,0,0,0,0,0,0,0,0,0,0,0,0,0,0,0,0,0,0,0,0,0,0,0,0,0,0,0,0,0,0,0,0,0,0,0,0,0,0,0,0,0,0],"sum_hessian":[9.77681E2,6.63757E2,3.13924E2,2.4701294E2,4.1674408E2,2.0528941E2,1.086346E2,2.0726196E2,3.9750984E1,3.5349377E2,6.325032E1,1.801341E2,2.5155329E1,5.544156E1,5.319304E1,1.7364655E2,3.361542E1,1.5110082E1,2.4640903E1,1.9784172E2,1.5565204E2,3.7852848E1,2.5397472E1,9.035287E1,8.978122E1,1.1761532E1,1.3393797E1,3.4420563E1,2.1020994E1,4.7807175E1,5.3858647E0,4.4034176E1,1.2961237E2,5.1327453E0,2.8482676E1,5.0806823E0,1.00294E1,4.1558433E0,2.048506E1,4.7793765E0,1.9306235E2,2.2410803E1,1.3324124E2,9.782763E0,2.8070086E1,1.9435873E1,5.961598E0,7.704007E1,1.33128E1,4.6608437E1,4.3172783E1,3.2634265E0,8.498105E0,1.2036088E1,1.3577088E0,1.8268435E1,1.615213E1,4.1991167E0,1.6821878E1,2.8170729E1,1.9636446E1,2.651702E0,2.734163E0,1.4551853E1,2.9482323E1,1.10299324E2,1.9313036E1,2.7161716E1,1.3209593E0,2.7132092E0,1.4426341E0,1.9126205E1,1.3588548E0,2.7014978E0,2.077879E0,4.0950367E1,1.5211197E2,1.5431658E1,6.9791436E0,8.4572014E1,4.8669228E1,8.462846E0,1.3199165E0,2.0244286E1,7.8258E0,1.6396557E1,3.0393164E0,2.2437103E0,3.7178876E0,1.2881035E1,6.4159035E1,1.1555744E1,1.7570559E0,2.6401293E1,2.0207142E1,3.0786966E1,1.2385818E1,1.2991784E0,7.198927E0,1.1635453E1,6.632981E0,1.4794559E1,1.3575709E0,1.3792506E0,2.8198662E0,2.2396435E1,5.7742934E0,1.3326464E0,1.4015166E0,1.2258658E1,2.2931945E0,1.1666453E1,1.7815868E1,9.8158035E1,1.2141293E1,1.08925495E1,8.420486E0,2.585609E1,1.3056257E0,2.2048994E1,1.8901373E1,4.6781372E1,1.05330605E2,1.2360575E1,3.071083E0,5.586309E0,1.3928347E0,4.975856E1,3.4813454E1,4.286645E1,5.8027787E0,1.5628253E1,4.616032E0,4.1854043E0,3.6403954E0,1.3955758E0,1.6437407E0,1.1585131E1,1.2959042E0,2.8058062E1,3.610097E1,1.6162828E1,1.0238464E1,1.6125895E1,4.0812483E0,2.621009E0,2.8165958E1,3.5777583E0,8.80806E0,1.3646429E0,1.0270811E1,2.3284469E0,4.304534E0,1.4160151E0,1.3378544E1,1.7441711E1,4.9547243E0,1.4482174E0,4.326076E0],"tree_param":{"num_deleted":"0","num_feature":"34","num_nodes":"159","size_leaf_vector":"1"}},{"base_weights":[-1.4171362E-2,-1.868133E-1,6.0094185E-2,-4.755865E-2,-3.2872078E-1,-2.4558505E-4,4.1772008E-1,4.0033305E-1,-1.3561037E-1,-1.5910593E-1,-6.1993563E-1,-5.9159774E-2,2.644366E-1,1.9467434E-1,7.539519E-1,7.183379E-1,-2.9793617E-1,-2.453458E-1,1.4516191E-1,1.6132317E-1,-3.7125567E-1,-6.9232725E-2,2.309277E-1,8.349087E-2,-2.3409253E-1,2.0156236E-2,5.9862024E-1,-6.068549E-1,3.9541626E-1,9.4535077E-1,-8.07901E-3,1.20556824E-1,1.1042756E-1,3.4888964E-2,-6.017486E-2,-4.696194E-1,3.720694E-2,-3.794207E-2,1.1299795E-1,-2.750321E-1,5.8586776E-1,-5.19274E-1,1.7177054E-1,9.0443455E-2,-4.7154825E-2,-1.372132E-1,3.1383783E-1,-1.0755135E-1,-5.7309234E-1,-2.4679385E-1,5.0832105E-1,8.344277E-1,-3.3099912E-2,-1.5886732E-3,-6.7717366E-2,6.176854E-1,-4.5937192E-1,1.048551E-1,-4.7990397E-2,6.171141E-1,-6.0227245E-2,7.0754147E-1,-5.3775873E-2,-6.2050885E-1,1.19673066E-1,-3.382281E-1,3.5296303E-1,-4.1063344E-1,4.7610468E-1,-4.9209467E-1,8.7385245E-2,2.6134718E-2,9.4029814E-1,-5.972635E-1,2.2610472E-1,9.0403223E-1,-6.0421553E-2,-2.6706937E-1,3.404666E-1,7.013044E-1,7.523819E-2,-3.517845E-1,1.3239115E-1,-6.4144903E-1,-2.6238024E-1,3.8298744E-1,-4.608686E-1,8.3916634E-1,-5.9965253E-2,1.0377697E0,5.0690085E-1,-4.2150706E-1,6.088483E-1,-2.2326241E-1,7.882379E-1,-6.3456625E-2,4.4455346E-2,8.804009E-2,-2.4444077E-3,9.613693E-2,2.9977122E-3,-6.855308E-2,-4.2724326E-2,9.952285E-2,-4.791595E-2,3.349227E-2,-6.6489056E-2,8.975824E-2,-1.2780601E-2,-6.6052556E-2,9.074238E-2,1.1129882E-1,-5.0885472E-3,-5.9738185E-2,4.0537085E-2,7.445677E-2,-5.7915878E-2,1.5927028E-3,1.0526055E-1,-1.9378375E-2,-6.615908E-2,9.333076E-2,-4.858608E-2,1.09683275E-1,2.6832086E-3,-3.641635E-2,4.0339578E-2,-3.9272603E-2,7.4676394E-2,-3.1265777E-2,8.305039E-2,-1.2596854E-3,8.023729E-2,1.4358818E-2,-4.7387708E-2,2.4719728E-2,-6.4545885E-2,-6.813232E-2,-2.2225488E-2,-4.7544688E-2,8.132953E-2,-2.556025E-2,6.099523E-2,-5.4283023E-2,7.106089E-2,1.12266414E-1,-3.3508085E-3,2.3587242E-2,1.157214E-1,9.643246E-2,4.7477726E-3,-6.1150696E-2,2.2046375E-3,-6.2670656E-3,8.644072E-2,8.033169E-2,-5.9445996E-2,-3.3093703E-3,8.634605E-2],"categories":[],"categories_nodes":[],"categories_segments":[],"categories_sizes":[],"default_left":[0,0,0,0,0,0,0,0,0,0,0,0,0,0,0,0,0,0,0,0,0,0,0,0,0,0,0,0,0,0,0,0,0,0,0,0,0,0,0,0,0,0,0,0,0,0,0,0,0,0,0,0,0,0,0,0,0,0,0,0,0,0,0,0,0,0,0,0,0,0,0,0,0,0,0,0,0,0,0,0,0,0,0,0,0,0,0,0,0,0,0,0,0,0,0,0,0,0,0,0,0,0,0,0,0,0,0,0,0,0,0,0,0,0,0,0,0,0,0,0,0,0,0,0,0,0,0,0,0,0,0,0,0,0,0,0,0,0,0,0,0,0,0,0,0,0,0,0,0,0,0,0,0,0,0,0,0,0,0],"id":9,"left_children":[1,3,5,7,9,11,13,15,17,19,21,23,25,27,29,31,33,35,37,39,41,-1,43,45,47,49,51,53,55,57,59,61,-1,-1,-1,63,65,67,-1,69,71,73,75,-1,-1,77,79,81,83,85,87,89,91,-1,-1,93,95,-1,-1,97,-1,99,-1,101,103,105,107,109,111,113,-1,115,117,119,121,123,-1,125,127,129,131,133,135,137,139,141,143,145,-1,147,149,151,153,155,157,-1,-1,-1,-1,-1,-1,-1,-1,-1,-1,-1,-1,-1,-1,-1,-1,-1,-1,-1,-1,-1,-1,-1,-1,-1,-1,-1,-1,-1,-1,-1,-1,-1,-1,-1,-1,-1,-1,-1,-1,-1,-1,-1,-1,-1,-1,-1,-1,-1,-1,-1,-1,-1,-1,-1,-1,-1,-1,-1,-1,-1,-1,-1,-1],"loss_changes":[1.2418664E1,5.741145E0,1.4617781E1,5.899008E0,7.0198135E0,9.069362E0,7.1872807E0,5.6768565E0,3.8746252E0,6.342266E0,3.40584E0,1.1890753E1,8.632093E0,9.916634E0,5.6452656E0,3.8342218E0,1.8616319E0,5.718051E0,6.469941E0,7.1100674E0,4.5827837E0,0E0,2.7362165E0,1.3402132E1,9.116012E0,8.232072E0,6.6834946E0,5.0619745E-1,9.536558E0,5.048481E0,3.6225615E0,3.421308E0,0E0,0E0,0E0,4.5401335E0,4.9481897E0,6.1386185E0,0E0,5.212762E0,3.8106527E0,2.7032814E0,7.777562E0,0E0,0E0,8.458234E0,1.186235E1,9.248346E0,1.0619202E0,5.6891685E0,8.684492E0,1.6433907E0,3.5246558E0,0E0,0E0,5.7806435E0,1.9645002E0,0E0,0E0,8.252466E-1,0E0,7.609E-1,0E0,2.1162891E-1,6.2845836E0,4.4268155E0,6.0360575E0,6.699418E0,4.588073E0,1.8268447E0,0E0,4.1379237E0,1.209094E0,9.169798E-1,2.9257066E0,1.1456761E0,0E0,7.0876913E0,9.013151E0,6.6785946E0,5.1760273E0,4.790942E0,7.297743E0,6.305866E-1,3.168401E0,1.7384948E0,3.3593464E0,4.3927174E0,0E0,1.5605259E0,2.9871006E0,7.514733E-1,9.722831E-1,3.285291E0,2.0494156E0,0E0,0E0,0E0,0E0,0E0,0E0,0E0,0E0,0E0,0E0,0E0,0E0,0E0,0E0,0E0,0E0,0E0,0E0,0E0,0E0,0E0,0E0,0E0,0E0,0E0,0E0,0E0,0E0,0E0,0E0,0E0,0E0,0E0,0E0,0E0,0E0,0E0,0E0,0E0,0E0,0E0,0E0,0E0,0E0,0E0,0E0,0E0,0E0,0E0,0E0,0E0,0E0,0E0,0E0,0E0,0E0,0E0,0E0,0E0,0E0,0E0,0E0,0E0,0E0],"parents":[2147483647,0,0,1,1,2,2,3,3,4,4,5,5,6,6,7,7,8,8,9,9,10,10,11,11,12,12,13,13,14,14,15,15,16,16,17,17,18,18,19,19,20,20,22,22,23,23,24,24,25,25,26,26,27,27,28,28,29,29,30,30,31,31,35,35,36,36,37,37,39,39,40,40,41,41,42,42,45,45,46,46,47,47,48,48,49,49,50,50,51,51,52,52,55,55,56,56,59,59,61,61,63,63,64,64,65,65,66,66,67,67,68,68,69,69,71,71,72,72,73,73,74,74,75,75,77,77,78,78,79,79,80,80,81,81,82,82,83,83,84,84,85,85,86,86,87,87,89,89,90,90,91,91,92,92,93,93,94,94],"right_children":[2,4,6,8,10,12,14,16,18,20,22,24,26,28,30,32,34,36,38,40,42,-1,44,46,48,50,52,54,56,58,60,62,-1,-1,-1,64,66,68,-1,70,72,74,76,-1,-1,78,80,82,84,86,88,90,92,-1,-1,94,96,-1,-1,98,-1,100,-1,102,104,106,108,110,112,114,-1,116,118,120,122,124,-1,126,128,130,132,134,136,138,140,142,144,146,-1,148,150,152,154,156,158,-1,-1,-1,-1,-1,-1,-1,-1,-1,-1,-1,-1,-1,-1,-1,-1,-1,-1,-1,-1,-1,-1,-1,-1,-1,-1,-1,-1,-1,-1,-1,-1,-1,-1,-1,-1,-1,-1,-1,-1,-1,-1,-1,-1,-1,-1,-1,-1,-1,-1,-1,-1,-1,-1,-1,-1,-1,-1,-1,-1,-1,-1,-1,-1],"split_conditions":[1E0,1E0,6.100124E-1,1.8388465E-1,1E0,1E0,1E0,1E0,1E0,3.6994988E-1,1E0,5.2272725E-1,1E0,1.8743595E-1,3.0710244E-1,1.6296978E-1,1.8321918E-1,6.245588E-1,6.100124E-1,1.9487415E-1,5.1312965E-1,-6.9232725E-2,1.8041682E-1,1E0,4.4383562E-1,6.31082E-1,7.3194605E-1,2.830016E-1,7.369685E-1,7.980067E-1,4.3747845E-1,1E0,1.1042756E-1,3.4888964E-2,-6.017486E-2,1E0,4.0573868E-1,6.369592E-1,1.1299795E-1,7.326733E-1,3.919541E-1,1E0,7.980067E-1,9.0443455E-2,-4.7154825E-2,7.98662E-1,3.6438355E-1,2.2260274E-1,2.2470927E-1,1.7465754E-1,5.728751E-1,6.154595E-1,7.579909E-1,-1.5886732E-3,-6.7717366E-2,2.5950348E-1,7.980067E-1,1.048551E-1,-4.7990397E-2,2.6107514E-1,-6.0227245E-2,2.935576E-1,-5.3775873E-2,4.0508857E-1,2.9545453E-1,4.7156826E-1,4.1859558E-1,1E0,2.033694E-1,1E0,8.7385245E-2,3.1482357E-1,3.3419007E-1,1.5334354E-1,4.9612895E-1,7.378518E-1,-6.0421553E-2,4.383998E-1,2.3259458E-1,1.1564929E-1,1E0,3.0124006E-1,8.3382326E-1,8.1112546E-1,1E0,5.559422E-2,9.812957E-1,7.369685E-1,-5.9965253E-2,2.1421906E-1,1E0,2.935576E-1,5.7458144E-1,2.9690367E-1,1.1788834E-1,-6.3456625E-2,4.4455346E-2,8.804009E-2,-2.4444077E-3,9.613693E-2,2.9977122E-3,-6.855308E-2,-4.2724326E-2,9.952285E-2,-4.791595E-2,3.349227E-2,-6.6489056E-2,8.975824E-2,-1.2780601E-2,-6.6052556E-2,9.074238E-2,1.1129882E-1,-5.0885472E-3,-5.9738185E-2,4.0537085E-2,7.445677E-2,-5.7915878E-2,1.5927028E-3,1.0526055E-1,-1.9378375E-2,-6.615908E-2,9.333076E-2,-4.858608E-2,1.09683275E-1,2.6832086E-3,-3.641635E-2,4.0339578E-2,-3.9272603E-2,7.4676394E-2,-3.1265777E-2,8.305039E-2,-1.2596854E-3,8.023729E-2,1.4358818E-2,-4.7387708E-2,2.4719728E-2,-6.4545885E-2,-6.813232E-2,-2.2225488E-2,-4.7544688E-2,8.132953E-2,-2.556025E-2,6.099523E-2,-5.4283023E-2,7.106089E-2,1.12266414E-1,-3.3508085E-3,2.3587242E-2,1.157214E-1,9.643246E-2,4.7477726E-3,-6.1150696E-2,2.2046375E-3,-6.2670656E-3,8.644072E-2,8.033169E-2,-5.9445996E-2,-3.3093703E-3,8.634605E-2],"split_indices":[12,25,5,11,23,19,20,29,23,10,15,1,29,0,7,1,9,1,5,10,11,0,1,27,9,4,0,8,3,1,0,17,0,0,0,21,3,0,0,8,11,21,1,0,0,0,9,9,10,9,7,4,9,0,0,2,1,0,0,3,0,2,0,9,1,11,4,17,7,31,0,8,3,3,2,4,0,1,2,3,17,4,4,11,14,3,1,3,0,11,22,2,1,1,4,0,0,0,0,0,0,0,0,0,0,0,0,0,0,0,0,0,0,0,0,0,0,0,0,0,0,0,0,0,0,0,0,0,0,0,0,0,0,0,0,0,0,0,0,0,0,0,0,0,0,0,0,0,0,0,0,0,0,0,0,0,0,0,0],"split_type":[0,0,0,0,0,0,0,0,0,0,0,0,0,0,0,0,0,0,0,0,0,0,0,0,0,0,0,0,0,0,0,0,0,0,0,0,0,0,0,0,0,0,0,0,0,0,0,0,0,0,0,0,0,0,0,0,0,0,0,0,0,0,0,0,0,0,0,0,0,0,0,0,0,0,0,0,0,0,0,0,0,0,0,0,0,0,0,0,0,0,0,0,0,0,0,0,0,0,0,0,0,0,0,0,0,0,0,0,0,0,0,0,0,0,0,0,0,0,0,0,0,0,0,0,0,0,0,0,0,0,0,0,0,0,0,0,0,0,0,0,0,0,0,0,0,0,0,0,0,0,0,0,0,0,0,0,0,0,0],"sum_hessian":[9.667171E2,2.9031616E2,6.7640094E2,1.4720155E2,1.431146E2,5.796071E2,9.679383E1,2.36015E1,1.2360005E2,9.141646E1,5.169814E1,4.7471854E2,1.0488857E2,5.9140717E1,3.765312E1,1.6196548E1,7.4049516E0,8.895828E1,3.464177E1,3.651066E1,5.49058E1,4.781625E1,3.8818915E0,2.617746E2,2.1294395E2,6.1207584E1,4.368099E1,1.1439925E1,4.770079E1,2.9902065E1,7.751052E0,6.8691907E0,9.327357E0,2.3191147E0,5.085837E0,4.9224632E1,3.973365E1,3.0021452E1,4.6203194E0,1.8178555E1,1.8332106E1,4.317962E1,1.1726181E1,1.8350352E0,2.0468562E0,1.3389197E2,1.27882614E2,1.5602173E2,5.692222E1,3.9888973E1,2.131861E1,3.1574156E1,1.2106833E1,1.346839E0,1.0093086E1,3.807706E1,9.623733E0,2.812956E1,1.7725048E0,3.758204E0,3.9928482E0,3.5917997E0,3.277391E0,3.9147793E1,1.007684E1,1.8118967E1,2.1614683E1,1.7520216E1,1.2501236E1,1.5770633E1,2.4079216E0,7.52384E0,1.0808265E1,3.926953E1,3.9100878E0,5.948165E0,5.7780156E0,1.0562025E2,2.8271725E1,4.7998184E1,7.988443E1,7.708856E1,7.8933174E1,4.578506E1,1.113716E1,9.91912E0,2.9969854E1,1.6603384E1,4.7152247E0,1.8142225E1,1.343193E1,7.7569366E0,4.349897E0,6.368193E0,3.1708866E1,8.310936E0,1.3127962E0,2.400703E0,1.357501E0,2.3082335E0,1.2835662E0,2.738675E1,1.1761044E1,3.823922E0,6.2529187E0,5.91163E0,1.2207338E1,9.727881E0,1.1886802E1,1.5147286E1,2.3729286E0,5.1569433E0,7.344293E0,1.4414006E1,1.3566269E0,3.3351736E0,4.188667E0,1.2945989E0,9.513666E0,5.951626E0,3.3317905E1,1.8056388E0,2.104449E0,4.671117E0,1.2770481E0,9.265864E1,1.2961612E1,1.0092496E1,1.8179228E1,5.264247E0,4.2733936E1,7.215149E1,7.732943E0,1.52080555E1,6.1880505E1,6.93759E1,9.557274E0,4.123722E1,4.5478387E0,9.761611E0,1.3755494E0,2.567895E0,7.351225E0,2.8511683E1,1.4581726E0,1.231595E1,4.2874336E0,2.7376401E0,1.5404585E1,6.179917E0,7.252013E0,5.1655674E0,2.591369E0,1.407156E0,2.942741E0,1.3820077E0,4.986185E0,2.7074227E0,2.9001444E1],"tree_param":{"num_deleted":"0","num_feature":"34","num_nodes":"159","size_leaf_vector":"1"}},{"base_weights":[4.143296E-3,1.5472417E-1,-6.513644E-2,2.1642399E-1,-2.8889272E-1,-2.3666981E-1,1.602877E-2,5.999757E-1,1.715168E-1,-4.097426E-1,7.3043525E-2,4.7456983E-2,-3.4754744E-1,-1.0167544E-2,6.0718E-1,-3.1195542E-2,9.263522E-1,3.151943E-1,2.1185108E-2,-5.3013635E-1,5.684855E-1,3.334594E-1,-3.0429104E-1,7.2191423E-1,-4.123837E-1,7.2799996E-2,-1.9560273E-1,-5.7104953E-2,9.690248E-1,5.0532544E-1,-4.7017813E-1,1.0388782E0,7.478472E-3,4.2148978E-3,4.502396E-1,-8.457292E-2,5.752209E-1,-6.4072245E-1,1.7081891E-1,-1.5993258E-3,8.4806606E-2,8.355856E-1,-4.0293553E-1,-3.8903287E-1,5.983689E-2,-4.258883E-2,1.0214603E0,-1.69941E-1,-5.129439E-1,-2.3661566E-1,1.6009176E-1,-1.14218645E-1,-6.052598E-1,1.1756416E-1,2.3559246E-3,-7.278278E-4,6.8461634E-2,-1.1929056E-3,-5.9146415E-2,4.3829873E-2,1.09024875E-1,-3.974132E-1,6.9495755E-1,7.758621E-1,2.4293338E-1,-4.2425227E-1,1.0614136E-1,8.5709274E-1,-2.7815485E-1,1.5049063E-3,-6.7351125E-2,-4.8445873E-2,8.053296E-2,4.6218902E-2,1.1874261E0,7.7346906E-2,-6.4839E-2,-5.0802565E-1,2.796412E-1,1.1221361E-1,3.4290563E-2,1.6110799E-1,-6.219823E-1,-6.6530055E-1,-3.1313664E-1,4.8664355E-1,-4.0396628E-1,-1.36153335E-2,3.3323178E-1,1.7031077E-2,-4.173615E-1,-7.416036E-2,-6.877689E-2,-4.246339E-2,4.273279E-2,-5.236077E-2,4.3300983E-2,8.8548616E-2,-4.588459E-2,9.0491645E-2,-1.9833414E-2,4.191811E-2,-2.1859089E-2,7.870089E-2,-4.9477946E-2,2.5609558E-2,-4.6735488E-2,-4.7735865E-3,9.550323E-2,-5.7371497E-2,3.464772E-2,9.821314E-2,-5.6477793E-2,1.3134603E-1,-8.0754946E-4,-5.79027E-2,9.305849E-3,8.888485E-2,-4.614886E-2,5.786236E-2,-4.090551E-2,-6.705567E-2,2.1590614E-3,-6.804807E-2,-1.2225255E-2,-3.786161E-2,7.7120155E-2,-5.1109254E-2,7.749715E-2,-5.527408E-2,1.9566847E-2,1.6267953E-2,-3.8081747E-2,5.6311894E-2,1.2095048E-2,3.408635E-2,-2.299524E-2,2.4340754E-2,-6.221592E-2,-4.6996605E-2,4.237143E-2],"categories":[],"categories_nodes":[],"categories_segments":[],"categories_sizes":[],"default_left":[0,0,0,0,0,0,0,0,0,0,0,0,0,0,0,0,0,0,0,0,0,0,0,0,0,0,0,0,0,0,0,0,0,0,0,0,0,0,0,0,0,0,0,0,0,0,0,0,0,0,0,0,0,0,0,0,0,0,0,0,0,0,0,0,0,0,0,0,0,0,0,0,0,0,0,0,0,0,0,0,0,0,0,0,0,0,0,0,0,0,0,0,0,0,0,0,0,0,0,0,0,0,0,0,0,0,0,0,0,0,0,0,0,0,0,0,0,0,0,0,0,0,0,0,0,0,0,0,0,0,0,0,0,0,0,0,0,0,0,0,0],"id":10,"left_children":[1,3,5,7,9,11,13,15,17,19,-1,21,23,25,27,29,31,33,35,37,39,41,43,45,47,49,51,-1,53,55,57,59,-1,61,63,65,67,69,71,-1,-1,73,75,77,-1,-1,79,81,83,85,87,89,91,-1,93,-1,-1,-1,-1,-1,-1,95,97,99,101,103,105,107,109,-1,-1,-1,-1,111,113,-1,-1,115,117,-1,-1,119,121,123,125,127,129,131,133,135,137,139,-1,-1,-1,-1,-1,-1,-1,-1,-1,-1,-1,-1,-1,-1,-1,-1,-1,-1,-1,-1,-1,-1,-1,-1,-1,-1,-1,-1,-1,-1,-1,-1,-1,-1,-1,-1,-1,-1,-1,-1,-1,-1,-1,-1,-1,-1,-1,-1,-1],"loss_changes":[1.0121453E1,8.430222E0,9.255786E0,4.52967E0,4.95032E0,6.7426815E0,7.006239E0,5.753482E0,5.223967E0,4.3521667E0,0E0,6.2191353E0,1.0954973E1,6.688732E0,8.737985E0,2.696293E0,1.6806698E0,5.1952343E0,7.045641E0,2.5235434E0,7.0833945E-1,1.2915035E1,2.3588336E0,3.580565E0,3.4612865E0,8.152969E0,4.4108543E0,0E0,3.004734E0,4.8102736E-1,3.4084618E-1,1.9809723E-2,0E0,1.095097E1,5.635292E0,6.5974517E0,4.873471E0,5.930538E-1,2.4828982E0,0E0,0E0,5.652832E0,4.678649E0,2.211982E0,0E0,0E0,1.3095665E-1,6.709613E0,2.9083462E0,8.247498E0,7.070457E0,4.5164595E0,9.1472626E-1,0E0,8.444553E-1,0E0,0E0,0E0,0E0,0E0,0E0,2.843189E0,3.5963092E0,4.341463E0,4.4979186E0,3.513403E0,5.7591724E0,1.3509293E0,1.2214348E0,0E0,0E0,0E0,0E0,4.772891E0,2.1463566E0,0E0,0E0,1.0115585E0,2.4758165E0,0E0,0E0,6.4949484E0,6.045933E-1,3.8832855E-1,3.571012E0,4.122122E0,4.975773E0,7.7161765E0,5.6757603E0,6.4811153E0,4.790776E0,1.0039808E0,0E0,0E0,0E0,0E0,0E0,0E0,0E0,0E0,0E0,0E0,0E0,0E0,0E0,0E0,0E0,0E0,0E0,0E0,0E0,0E0,0E0,0E0,0E0,0E0,0E0,0E0,0E0,0E0,0E0,0E0,0E0,0E0,0E0,0E0,0E0,0E0,0E0,0E0,0E0,0E0,0E0,0E0,0E0,0E0,0E0,0E0,0E0,0E0,0E0],"parents":[2147483647,0,0,1,1,2,2,3,3,4,4,5,5,6,6,7,7,8,8,9,9,11,11,12,12,13,13,14,14,15,15,16,16,17,17,18,18,19,19,20,20,21,21,22,22,23,23,24,24,25,25,26,26,28,28,29,29,30,30,31,31,33,33,34,34,35,35,36,36,37,37,38,38,41,41,42,42,43,43,46,46,47,47,48,48,49,49,50,50,51,51,52,52,54,54,61,61,62,62,63,63,64,64,65,65,66,66,67,67,68,68,73,73,74,74,77,77,78,78,81,81,82,82,83,83,84,84,85,85,86,86,87,87,88,88,89,89,90,90,91,91],"right_children":[2,4,6,8,10,12,14,16,18,20,-1,22,24,26,28,30,32,34,36,38,40,42,44,46,48,50,52,-1,54,56,58,60,-1,62,64,66,68,70,72,-1,-1,74,76,78,-1,-1,80,82,84,86,88,90,92,-1,94,-1,-1,-1,-1,-1,-1,96,98,100,102,104,106,108,110,-1,-1,-1,-1,112,114,-1,-1,116,118,-1,-1,120,122,124,126,128,130,132,134,136,138,140,-1,-1,-1,-1,-1,-1,-1,-1,-1,-1,-1,-1,-1,-1,-1,-1,-1,-1,-1,-1,-1,-1,-1,-1,-1,-1,-1,-1,-1,-1,-1,-1,-1,-1,-1,-1,-1,-1,-1,-1,-1,-1,-1,-1,-1,-1,-1,-1,-1],"split_conditions":[1E0,1E0,3.448276E-1,6.930389E-2,1E0,6.930389E-2,9.7727275E-1,4.5454547E-1,3.9776292E-1,9.006324E-1,7.3043525E-2,1E0,8.833927E-2,1E0,3.982998E-2,1.4356802E-1,1E0,1.7823969E-1,8.90793E-1,1E0,3.1146178E-1,1E0,6.941328E-1,5.6797687E-2,3.114465E-1,1.5068494E-1,8.640046E-1,-5.7104953E-2,1E0,3.2549042E-1,1E0,4.5764482E-1,7.478472E-3,5.940594E-1,1.9964279E-1,5.8987695E-1,1E0,9.569144E-2,4.923061E-1,-1.5993258E-3,8.4806606E-2,8.736031E-3,9.173228E-2,1E0,5.983689E-2,-4.258883E-2,1E0,1E0,4.1407076E-1,1.8957627E-1,4.6153846E-1,1E0,1E0,1.1756416E-1,3.8578066E-1,-7.278278E-4,6.8461634E-2,-1.1929056E-3,-5.9146415E-2,4.3829873E-2,1.09024875E-1,1E0,9.623722E-1,8.265539E-1,1E0,2.527487E-1,1E0,2.9690367E-1,